1073 20
effect -0.18482582 0.004259673 0.13817589 0.4869844 -0.28912598 -0.25864834 0.14274278 0.6729799 -0.39296493 0.12243802 0.44654864 -0.0906845 0.24980043 -0.09563228 0.4122616 0.43086082 0.5817562 -0.22725908 -0.29103932 -0.64737844
effects -0.16854458 0.038623087 0.15121858 0.47566855 -0.2397139 -0.26679546 0.113947794 0.7294228 -0.44377294 0.14969425 0.4262245 -0.09383425 0.3537026 -0.1844092 0.47425738 0.47653568 0.6769505 -0.29333565 -0.2827729 -0.690288
properties -0.25217667 0.048657916 0.07733054 0.44832617 -0.2536964 -0.24436225 0.07924384 0.74640465 -0.36956307 0.20893346 0.40843794 -0.05352725 0.2746263 -0.13222334 0.5397916 0.45733735 0.6544086 -0.30210578 -0.29376695 -0.59817475
activity -0.22598796 0.021927329 0.10428801 0.4510327 -0.28831318 -0.24442858 0.11097405 0.75697994 -0.4379315 0.18065943 0.4990365 -0.043269258 0.306795 -0.19610421 0.52591723 0.49090996 0.7039851 -0.26853746 -0.3074465 -0.72221047
acid -0.21721378 0.021928573 0.138374 0.5280285 -0.31054416 -0.24582043 0.161436 0.6836436 -0.4280906 0.20584127 0.46922237 -0.07485671 0.33206198 -0.1384671 0.5365947 0.5195412 0.59356296 -0.31261984 -0.2809868 -0.6239154
rat -0.24218287 0.029265478 0.14362018 0.480417 -0.21082546 -0.27617812 0.12351731 0.7090658 -0.40421453 0.11425185 0.43104723 -0.11513871 0.25553778 -0.102142215 0.48228645 0.5058804 0.6475775 -0.2073963 -0.288878 -0.639314
studies -0.18698896 -0.013270443 0.15526666 0.39906925 -0.22477415 -0.2237871 0.09040734 0.7085296 -0.39872327 0.19159527 0.49062997 -0.09928732 0.29612738 -0.16527267 0.48831305 0.48623762 0.6442041 -0.21798675 -0.21833982 -0.5900422
proceedings -0.12841158 -0.029843057 0.061416063 0.3911981 -0.23650107 -0.16267507 0.11851198 0.5725795 -0.33148676 0.14775215 0.42046824 -0.11866525 0.25878796 -0.095303796 0.39666766 0.44841886 0.56695557 -0.16612191 -0.24118838 -0.5073785
pH -0.25584456 0.026627809 0.091324404 0.44716403 -0.25516748 -0.22007439 0.15835026 0.6643863 -0.371723 0.2059287 0.4363303 -0.1357141 0.33895147 -0.106335804 0.47910914 0.45003107 0.5967001 -0.27896568 -0.24991632 -0.67274636
study -0.22992888 0.030395612 0.139843 0.3940462 -0.2351218 -0.23250742 0.11360851 0.587511 -0.3534956 0.12260082 0.4266685 -0.07748104 0.2953644 -0.17537501 0.42748684 0.4541901 0.6013826 -0.25292346 -0.3083898 -0.575535
liver -0.19485314 0.039530437 0.07989625 0.45115206 -0.21149345 -0.19857696 0.09310299 0.6906478 -0.44068718 0.19898641 0.4151268 -0.09706489 0.34230316 -0.12564376 0.5040706 0.42240307 0.6400806 -0.19613048 -0.3213522 -0.66280305
human -0.22267203 -0.0056668073 0.09020007 0.37793916 -0.2060469 -0.24987555 0.15984493 0.6681893 -0.41298112 0.16917571 0.44535178 -0.1123718 0.2472425 -0.14726762 0.39730346 0.43451986 0.57423073 -0.21964557 -0.25457937 -0.6174246
The -0.19052288 0.018159566 0.08661527 0.41266474 -0.18975337 -0.16769509 0.107081644 0.52252716 -0.34101987 0.13378716 0.36661217 -0.08140348 0.2034805 -0.1586726 0.34296054 0.33595473 0.49264368 -0.2212747 -0.250398 -0.5388617
author's -0.13594411 -0.028096043 0.16008249 0.35615885 -0.2629657 -0.10113481 0.14065684 0.5431785 -0.3438049 0.17516136 0.37011772 -0.010541043 0.25861079 -0.09874083 0.328289 0.40834734 0.5307927 -0.15225938 -0.21511963 -0.49016815
transl -0.13451025 -0.052117407 0.004147069 0.35742977 -0.20273179 -0.22912207 0.035062898 0.441011 -0.22363637 0.11322742 0.28086832 -0.0154198855 0.30453733 -0.14536099 0.40568897 0.38347864 0.52166355 -0.18098232 -0.12387039 -0.53850496
treatment -0.19869488 0.0602308 0.077400774 0.35172582 -0.18091872 -0.20609939 0.104324766 0.5571723 -0.27800816 0.08847541 0.38670507 -0.037173066 0.25299293 -0.13986234 0.4146676 0.35544202 0.5213095 -0.22538218 -0.2532724 -0.46654204
blood -0.1798409 -0.013341463 0.15428844 0.4722137 -0.29924294 -0.21420863 0.12760207 0.6434957 -0.35815877 0.15104319 0.42494285 -0.101256154 0.2457734 -0.12849855 0.46229526 0.48348105 0.62362427 -0.27515033 -0.3106066 -0.5437565
purification -0.13289355 0.038781803 0.13016286 0.33704096 -0.13996826 -0.15616636 0.11736234 0.5117817 -0.311438 0.103031 0.35920218 -0.060221855 0.15888977 -0.16708477 0.3154836 0.35264558 0.45813575 -0.14905353 -0.16477372 -0.507648
metabolism -0.16858158 0.036835846 0.13940915 0.39245272 -0.20624267 -0.24628529 0.08547107 0.63583153 -0.3528904 0.09253205 0.41812056 -0.08686376 0.25607252 -0.06597211 0.40086064 0.3897529 0.5128003 -0.1854335 -0.27637115 -0.55623806
changes -0.2124928 0.039935764 0.12552021 0.4397476 -0.24795415 -0.23094079 0.15115438 0.64053917 -0.3697229 0.093269706 0.3579912 -0.07822828 0.2643331 -0.14245497 0.4805952 0.42670906 0.58220446 -0.272455 -0.26372296 -0.61096704
determination -0.22063707 0.02294663 0.06277261 0.42664698 -0.22855228 -0.19738404 0.11712189 0.652547 -0.40031922 0.18175067 0.38652825 -0.050259057 0.23500894 -0.11533233 0.41484925 0.41950482 0.5678999 -0.20791866 -0.22739765 -0.6335751
action -0.17476024 -0.03183149 0.13603386 0.4512575 -0.23446736 -0.19635476 0.104691684 0.6134985 -0.386975 0.14583947 0.41993123 -0.0596377 0.26106977 -0.17114402 0.45397505 0.37524578 0.51484555 -0.19164464 -0.24096887 -0.5397387
influence -0.16838056 -0.021455888 0.05576383 0.45540166 -0.19987977 -0.24819738 0.11908348 0.60006064 -0.3223344 0.10101708 0.41361716 -0.053826742 0.3220917 -0.14916384 0.41623238 0.37808126 0.4929012 -0.26759252 -0.25130925 -0.6038832
new -0.13599366 -0.019603848 0.10790901 0.38860863 -0.2304646 -0.20757893 0.14856485 0.6056183 -0.3500698 0.18046708 0.33542985 -0.033951346 0.2270266 -0.09839129 0.40437868 0.42253858 0.49517918 -0.16490804 -0.18672258 -0.5759542
serum -0.21626952 -0.027716812 0.11476283 0.38408765 -0.267114 -0.25110412 0.13765442 0.6164048 -0.39694685 0.11450625 0.40721917 -0.101267464 0.29510936 -0.14323768 0.4288062 0.37567773 0.586347 -0.19405098 -0.2310832 -0.55272114
cells -0.23792696 0.016499579 0.09997161 0.3849285 -0.30305806 -0.23312944 0.13699833 0.6601742 -0.40961444 0.11309935 0.3935534 -0.08920112 0.24283336 -0.18254378 0.42761502 0.4010934 0.5514668 -0.2698735 -0.27054214 -0.62125975
isolated -0.22605519 0.014179728 0.14307424 0.4514301 -0.27435887 -0.22744094 0.1234127 0.5535363 -0.34442806 0.17122185 0.41651717 -0.11458216 0.24059683 -0.1636474 0.40388697 0.4602459 0.568744 -0.20165141 -0.2162379 -0.5820482
binding -0.11474876 -0.025512053 0.06733737 0.3820454 -0.22695151 -0.22356687 0.094083115 0.6147791 -0.34389272 0.12287735 0.38806397 -0.11188964 0.2956397 -0.071485534 0.35340184 0.40836665 0.57404697 -0.25725022 -0.26661494 -0.59205455
regulation -0.1402972 0.010060403 0.14680405 0.37522143 -0.20792113 -0.19978605 0.10565449 0.6331906 -0.39740616 0.08897584 0.4131704 -0.037915897 0.30728328 -0.086831376 0.41917923 0.46558908 0.50317734 -0.21082169 -0.24417228 -0.5560459
brain -0.1427689 -0.022488872 0.13939315 0.3781743 -0.24648102 -0.26552135 0.07837487 0.67092246 -0.37257886 0.1649572 0.45865956 -0.028605733 0.2350097 -0.13320486 0.49451187 0.45534247 0.5607669 -0.2778477 -0.2470764 -0.6208972
inhibition -0.11898609 -0.010929447 0.08895727 0.37892187 -0.21414201 -0.1944526 0.119509205 0.55851305 -0.34030518 0.12054664 0.39248425 -0.052782767 0.24436152 -0.05873207 0.3614411 0.3773967 0.5497567 -0.1735371 -0.21650016 -0.56270695
characterization -0.14125703 0.0053811586 0.13615443 0.36959055 -0.19193062 -0.1749021 0.075846985 0.506821 -0.30086312 0.113426074 0.37583503 -0.005952106 0.2290264 -0.0859942 0.34210998 0.37790298 0.44608623 -0.25873947 -0.24173465 -0.5473064
cell -0.14574702 -0.019102309 0.14740565 0.37739357 -0.21742557 -0.16857474 0.06969432 0.5670636 -0.38108122 0.13070191 0.3985895 -0.12419903 0.22570357 -0.10875737 0.38335758 0.37405613 0.54887563 -0.28023878 -0.28462002 -0.63016295
synthesis -0.18433806 -0.014879188 0.1410558 0.44509584 -0.26013252 -0.1968877 0.074342534 0.6042037 -0.40620753 0.12666295 0.40655994 -0.036886383 0.26503944 -0.09863812 0.47728515 0.39380383 0.5943756 -0.21037506 -0.26683822 -0.56047904
patients -0.14881197 -0.02082083 0.06850994 0.45132405 -0.25454456 -0.2606631 0.15020284 0.6109825 -0.40377682 0.15212257 0.4038458 -0.073168986 0.25925535 -0.12742805 0.4407557 0.45087826 0.6216736 -0.27343157 -0.26579928 -0.5782341
interaction -0.0928653 -0.017498001 0.12156272 0.35410163 -0.20456137 -0.16266504 0.10323528 0.43807694 -0.2965697 0.07584949 0.2965966 -0.054478895 0.22428185 -0.10579612 0.31457055 0.33020577 0.43816334 -0.17108749 -0.21396354 -0.4806223
chronic -0.14828181 0.050881363 0.09218196 0.31160864 -0.24389723 -0.15352577 0.06617552 0.5594842 -0.33532348 0.1712737 0.31282958 -0.044531364 0.22281046 -0.13629867 0.34865734 0.36347124 0.43539584 -0.20581964 -0.25325096 -0.48394787
plasma -0.13401148 -0.005556812 0.10535432 0.4551744 -0.20263503 -0.26114735 0.07295438 0.6326811 -0.32675263 0.15356013 0.37788898 -0.08320144 0.335393 -0.1670632 0.41605037 0.5014449 0.5352175 -0.22462824 -0.25612238 -0.57474124
acute -0.121060885 -0.0009797141 0.07502851 0.44514686 -0.21174286 -0.17473735 0.036405973 0.6332748 -0.34218574 0.10745298 0.3949137 -0.0697898 0.27772397 -0.12855472 0.38794696 0.42410043 0.5677666 -0.25016525 -0.21801974 -0.5930793
transport -0.2153168 0.0014961138 0.05642354 0.43800035 -0.23501134 -0.23692088 0.12600794 0.67241687 -0.31547174 0.13157284 0.41574043 -0.0958488 0.23148113 -0.09671239 0.41991645 0.4315148 0.5547197 -0.26028484 -0.22875737 -0.6032441
mechanism -0.21120588 0.0661143 0.10868412 0.40917075 -0.15838534 -0.16081415 0.1389783 0.5045665 -0.34096572 0.1409116 0.36305737 -0.09546126 0.27874637 -0.120830536 0.41812435 0.36224094 0.4237297 -0.20400426 -0.25149155 -0.50577813
role -0.14826922 0.054341827 0.13746393 0.3281114 -0.18884967 -0.1723908 0.071236774 0.4853302 -0.30369058 0.08129646 0.37966394 -0.09277804 0.26034456 -0.05827494 0.37184015 0.39217886 0.468864 -0.15989251 -0.19372031 -0.54936683
drugs -0.17090368 0.02549855 0.09995579 0.37718877 -0.2254001 -0.20855002 0.0941622 0.57911634 -0.3508902 0.11676722 0.37495804 -0.0646747 0.2564283 -0.14211378 0.42466915 0.38631216 0.5256057 -0.19931392 -0.20064235 -0.57226235
renal -0.18880121 -0.007984662 0.13488814 0.37126827 -0.25576475 -0.19548728 0.06607579 0.58304733 -0.36993635 0.14184152 0.31267866 -0.063776255 0.2742098 -0.07383589 0.33275935 0.3563621 0.45578334 -0.25092462 -0.2727798 -0.53254604
drug -0.16769774 -0.03040351 0.12799701 0.39851388 -0.17968048 -0.18589316 0.09752039 0.5204346 -0.33373156 0.16078669 0.34812844 -0.056752317 0.2633943 -0.12109718 0.4535072 0.4394957 0.51627135 -0.16873951 -0.19664074 -0.5627784
protein -0.20105031 -0.0210417 0.06616132 0.4504326 -0.23704194 -0.24754095 0.08219934 0.6314267 -0.3678925 0.12001975 0.39981833 -0.07789855 0.25527596 -0.11616282 0.40422255 0.45259064 0.5571789 -0.27817982 -0.20982163 -0.6000888
function -0.16707948 0.030779634 0.072873175 0.38090166 -0.17933807 -0.218864 0.059994414 0.62733376 -0.34271145 0.11434422 0.4201324 -0.04845232 0.27713826 -0.072177015 0.35522035 0.42863593 0.5294473 -0.1986933 -0.22213683 -0.5180062
Effect -0.13077272 0.041973818 0.07539506 0.33938035 -0.1984786 -0.17759727 0.07817325 0.5565643 -0.28434557 0.16288696 0.3563152 -0.026873518 0.22368069 -0.063545175 0.3848836 0.3217176 0.44676125 -0.21714932 -0.18195978 -0.5058715
muscle -0.20180507 0.04954032 0.16767335 0.4362251 -0.28321818 -0.24454549 0.08266466 0.58498853 -0.35956362 0.114783764 0.42878494 -0.045736782 0.26879194 -0.18692268 0.45044792 0.4093899 0.587253 -0.2672816 -0.21399057 -0.59985805
response -0.16888624 -0.00096987543 0.096829675 0.4964461 -0.2531876 -0.27559412 0.06628759 0.6836126 -0.36177528 0.1836728 0.38537452 -0.028778126 0.32373863 -0.08525446 0.5234431 0.42544013 0.551433 -0.23095825 -0.21771193 -0.61219364
system -0.13786119 0.0047991793 0.1427776 0.35760057 -0.27433366 -0.25161028 0.083747484 0.6269699 -0.37434027 0.093231834 0.43756312 -0.09452787 0.31099242 -0.14491697 0.42621344 0.4336834 0.5499708 -0.24208651 -0.23450722 -0.60819536
letter -0.12524737 -0.0050965757 0.09894086 0.25782058 -0.19096316 -0.1173356 0.06275882 0.3773258 -0.19461401 0.118916474 0.23889619 -0.04470458 0.22470762 -0.04358463 0.31190726 0.30087402 0.37275565 -0.15921794 -0.19396769 -0.37615934
gastric -0.18241057 0.008320425 0.06274618 0.45089158 -0.26483616 -0.2477454 0.076102674 0.59136736 -0.38653812 0.15013205 0.3549614 -0.08042003 0.22087239 -0.10479346 0.42674613 0.41167855 0.50464445 -0.22949883 -0.1927888 -0.539458
enzymes -0.22159904 -0.0064187744 0.11081495 0.4196005 -0.27802095 -0.19201785 0.054552518 0.55643 -0.3332293 0.12307673 0.40467146 -0.021502469 0.2414292 -0.068905406 0.42003813 0.46093187 0.567127 -0.2671911 -0.2569448 -0.5230154
method -0.12690349 0.06581338 0.13003968 0.42953262 -0.2791282 -0.18157393 0.06772404 0.59078556 -0.3038359 0.15730676 0.41422608 -0.055990703 0.24357112 -0.08415618 0.3590524 0.3938089 0.573573 -0.2447102 -0.2096176 -0.57295704
analysis -0.10022313 0.051299404 0.092217706 0.38347808 -0.1907989 -0.2166881 0.08097832 0.5508135 -0.32335612 0.10134056 0.36140248 -0.047900863 0.21744598 -0.11897478 0.38941306 0.32863787 0.44385386 -0.229773 -0.22551157 -0.52917355
vitro -0.16779388 -0.03719683 0.092166215 0.29788354 -0.2454839 -0.21613441 0.046013393 0.5313675 -0.26837856 0.12080787 0.30961174 -0.092403114 0.22231743 -0.0909994 0.33796084 0.3486357 0.4556085 -0.17398532 -0.24073462 -0.5010506
acids -0.22716686 0.008223514 0.10484869 0.4548229 -0.24790563 -0.22352065 0.15764932 0.6018713 -0.36678785 0.19634874 0.39532185 -0.094511926 0.30409053 -0.083486944 0.38960856 0.41644394 0.5412603 -0.20284802 -0.24742585 -0.57190186
control -0.1364791 0.008702938 0.08903585 0.3247819 -0.22351831 -0.14194638 0.12020611 0.53717613 -0.33197612 0.12579294 0.3066534 -0.0073167137 0.23665787 -0.07500271 0.35632342 0.37545517 0.41064358 -0.14131948 -0.21039362 -0.48706412
dehydrogenase -0.17044434 0.067628406 0.06304844 0.35522985 -0.16377527 -0.18380949 0.062091067 0.51345897 -0.26809043 0.16109642 0.38263324 -0.074556485 0.18382001 -0.08999821 0.41317734 0.34711853 0.44939256 -0.22128932 -0.24573697 -0.5161472
cells. -0.17999557 -0.014268404 0.1441145 0.34183666 -0.19874161 -0.17956664 0.09498477 0.6216073 -0.2844147 0.10413848 0.34290442 -0.102735355 0.20696141 -0.123708986 0.37031356 0.35302943 0.51837283 -0.19851743 -0.20231998 -0.557216
characteristics -0.1772166 0.013892019 0.08278019 0.39440322 -0.19684117 -0.14925174 0.046699047 0.56068337 -0.31085277 0.16921028 0.29799125 -0.051948905 0.23630092 -0.10514087 0.334286 0.30756173 0.4269842 -0.23140386 -0.19445758 -0.4866595
experimental -0.15712903 0.04738941 0.07184898 0.34881988 -0.24752404 -0.23765267 0.1339657 0.48758757 -0.337565 0.15816239 0.37947953 -0.10028522 0.23372047 -0.13890404 0.37275046 0.33403122 0.45082733 -0.18391418 -0.1650105 -0.46470898
iI -0.053887364 -0.027511958 0.043397706 0.023593636 -0.028589565 -0.0041265413 0.05119328 0.013998546 -0.05883145 0.0129638575 0.04324794 0.029127564 0.028573854 -0.032782078 0.012774048 0.013111616 0.040501483 -0.047059387 -0.048040997 -0.016746879
formation -0.19654427 0.037360616 0.08043561 0.41051063 -0.2298401 -0.18550229 0.13014503 0.4999534 -0.32893568 0.13044013 0.34855822 -0.07530049 0.26008138 -0.14604326 0.3775449 0.358783 0.5130183 -0.15443008 -0.17539178 -0.44982526
amino -0.21330626 0.06802972 0.04212493 0.36602807 -0.24094659 -0.23254894 0.052922517 0.516343 -0.34783596 0.13427894 0.3293843 -0.039443336 0.18661408 -0.14650987 0.4344174 0.4191689 0.5488655 -0.1964835 -0.22367628 -0.5531677
factors -0.14233254 0.019374823 0.13893825 0.42924452 -0.18111512 -0.1593378 0.039771214 0.54082257 -0.32102355 0.17177123 0.4131462 -0.040489852 0.29469213 -0.14257406 0.43900752 0.38379255 0.47863087 -0.16342685 -0.22513226 -0.56210905
enzyme -0.17664252 -0.012330932 0.116429016 0.40757155 -0.22544572 -0.23654953 0.06970947 0.5564521 -0.29245156 0.12007507 0.36210376 -0.061034083 0.20548531 -0.099674396 0.3772967 0.4012158 0.53260463 -0.21286662 -0.23476513 -0.4836727
use -0.11622869 0.04193225 0.106591925 0.39185497 -0.16222116 -0.1869076 0.13355017 0.53086245 -0.27160817 0.11141607 0.32137206 -0.08180784 0.18360211 -0.086252615 0.3986241 0.39697316 0.45621172 -0.16135481 -0.18693113 -0.5090793
membrane -0.15883487 -0.015492318 0.14810728 0.43092698 -0.21018068 -0.19098112 0.14979404 0.62795234 -0.34531704 0.098670386 0.43035513 -0.025614558 0.26871902 -0.13006899 0.3839329 0.39330614 0.5771264 -0.24437869 -0.2723779 -0.5053566
comparison -0.09209591 0.052548718 0.078902386 0.27394703 -0.13786273 -0.18798053 0.112348884 0.4891335 -0.2173724 0.062209044 0.34818786 -0.10513697 0.1667578 -0.13271311 0.29323146 0.36265188 0.4672825 -0.1940578 -0.16829772 -0.4584842
reaction -0.111919336 0.04220123 0.08937123 0.34796053 -0.2334525 -0.15572986 0.09742932 0.5147361 -0.26635322 0.10486492 0.29618764 -0.0722212 0.22761539 -0.14309277 0.3386748 0.32439584 0.51462954 -0.16079445 -0.20759535 -0.44972184
evidence -0.12903543 0.0062265326 0.12981686 0.415907 -0.19396916 -0.16093683 0.071225025 0.55641717 -0.3301585 0.15635066 0.39055902 -0.04179918 0.28332546 -0.16208537 0.3816966 0.35556433 0.5640091 -0.19189757 -0.23255229 -0.5224569
isolation -0.17523101 -0.022582527 0.09286689 0.3557626 -0.1560474 -0.14019385 0.0682569 0.45226845 -0.26985312 0.08968794 0.27432168 -0.09622845 0.23157254 -0.101988085 0.31816295 0.27972487 0.4713869 -0.17740741 -0.175014 -0.43008244
oxygen -0.20745891 0.021149632 0.10765166 0.33202186 -0.1843137 -0.18127017 0.139526 0.5774869 -0.3359445 0.08635007 0.40285057 -0.056959614 0.2728476 -0.076854795 0.3906046 0.3512379 0.49684712 -0.16859545 -0.25689444 -0.46493194
normal -0.1969877 0.030026965 0.09916865 0.3950334 -0.22612058 -0.20569208 0.057647247 0.5462252 -0.32797056 0.16564795 0.31949925 -0.112693064 0.20514308 -0.07146675 0.32943583 0.3290684 0.43893605 -0.1643385 -0.18982549 -0.4808446
using -0.17708297 0.042912133 0.0580619 0.36302853 -0.24748941 -0.2070771 0.08212118 0.59902155 -0.32314906 0.078508206 0.3291384 -0.105157934 0.26143909 -0.05618453 0.35426703 0.4215022 0.54368114 -0.24700604 -0.26317203 -0.47388908
different -0.11172312 -0.0154443905 0.05576325 0.4098602 -0.18660317 -0.1493664 0.05044303 0.47989473 -0.30227354 0.07342017 0.32067594 -0.075833425 0.28686205 -0.06349439 0.35700798 0.40069157 0.53361636 -0.20911923 -0.16988382 -0.4664618
structure -0.12032841 -0.010050558 0.04935704 0.2933233 -0.12845065 -0.18853392 0.062798135 0.4977422 -0.24271679 0.1403701 0.2531488 -0.059201032 0.22600749 -0.11269968 0.35359174 0.35672766 0.40239254 -0.1749646 -0.18405536 -0.45321512
release -0.20016815 0.00240041 0.0774775 0.38996765 -0.24491717 -0.16216254 0.05979508 0.4917247 -0.26387972 0.17145285 0.33130005 -0.040490877 0.20987043 -0.15335265 0.34580407 0.4063933 0.5166606 -0.14742392 -0.18114428 -0.47092277
growth -0.1534816 -0.041606046 0.116609216 0.37023953 -0.17454182 -0.18795153 0.07648322 0.58841383 -0.3137749 0.12541232 0.3325276 -0.11468709 0.20337349 -0.06689231 0.33444268 0.42387387 0.44100395 -0.20754136 -0.22192316 -0.5658011
identification -0.086988024 0.0455771 0.09417738 0.33624542 -0.17474383 -0.1094595 0.11166589 0.40911946 -0.28679246 0.10029875 0.31599644 -0.07534801 0.20859915 -0.1341955 0.3267022 0.33938664 0.43353367 -0.18922462 -0.22240484 -0.4741612
respiratory -0.16831395 -0.029128484 0.05073382 0.41334084 -0.1772354 -0.19071716 0.04663593 0.5307129 -0.28319064 0.1477211 0.34108084 -0.10611627 0.25212535 -0.08982374 0.40262333 0.40393043 0.47278938 -0.2718375 -0.26247633 -0.5320056
rats -0.12261422 0.033699572 0.09279963 0.37165505 -0.2005045 -0.16054246 0.04061386 0.5497836 -0.27288154 0.14838915 0.3675126 -0.01513162 0.23015463 -0.10757586 0.35610178 0.3059532 0.50678474 -0.22350003 -0.16505763 -0.50407785
tissue -0.15818323 -0.039786167 0.041174706 0.33869454 -0.24905461 -0.19255294 0.054483354 0.5264385 -0.34887433 0.10051465 0.39420953 -0.041846942 0.294432 -0.07324204 0.35330638 0.4163104 0.4514889 -0.22655201 -0.2652127 -0.50214034
levels -0.14381766 0.048281297 0.1031482 0.31854644 -0.1564103 -0.2191607 0.13667902 0.5442301 -0.32160366 0.095073916 0.31599867 -0.09506512 0.2849563 -0.11884895 0.40647048 0.31372377 0.48756483 -0.20510027 -0.17092921 -0.5473967
absorption -0.10828024 -0.01713892 0.05725482 0.32604742 -0.2203504 -0.20032616 0.069998465 0.47856876 -0.29732287 0.1233345 0.33155572 -0.042015947 0.18820116 -0.116994195 0.38444445 0.40131786 0.42485493 -0.16203448 -0.18161562 -0.5096999
temperature -0.082905136 -0.03828262 0.11721364 0.3166686 -0.15860137 -0.17777574 0.05530306 0.41114482 -0.24316558 0.10949684 0.3155338 0.001610683 0.23092467 -0.106901266 0.34501332 0.2908176 0.40777323 -0.15111595 -0.17924911 -0.38180786
two -0.1809951 -0.020224815 0.048835684 0.37311557 -0.16874543 -0.18522637 0.10309416 0.55371326 -0.2691155 0.08562375 0.3612086 -0.101531796 0.25410008 -0.056554027 0.41282833 0.40080413 0.52426195 -0.16345695 -0.176325 -0.4639255
therapy -0.1374251 0.052782513 0.092323445 0.25905952 -0.105569705 -0.113167495 0.10896081 0.40786016 -0.17071664 0.09904221 0.30441144 -0.029349208 0.21227881 -0.099288955 0.3114934 0.3085905 0.34961066 -0.15558301 -0.13915591 -0.40676147
kinetics -0.08004355 -0.038070623 0.04198679 0.3236588 -0.13835277 -0.187071 0.095193654 0.5107158 -0.3052427 0.07438387 0.2768751 -0.07155425 0.21184127 -0.042138048 0.3514615 0.31914628 0.42409566 -0.1305467 -0.13628073 -0.39810726
comparative -0.08258056 -0.030971568 0.046874393 0.23607989 -0.11887793 -0.14616744 0.021834245 0.42242593 -0.18355191 0.07441736 0.2977011 -0.047202967 0.15122652 -0.08237929 0.27291146 0.24990895 0.35574198 -0.1166354 -0.122601695 -0.40965816
myocardial -0.16190001 -0.018661603 0.13027962 0.38442037 -0.21843278 -0.1678092 0.04470268 0.514554 -0.24890444 0.10674481 0.3040032 -0.10064154 0.21140224 -0.10693961 0.38197118 0.40824074 0.44093487 -0.18748324 -0.1574787 -0.47656712
rabbit -0.13065553 0.055886254 0.125632 0.35875133 -0.21588896 -0.12091459 0.10939257 0.5142842 -0.28163764 0.12625453 0.3389447 -0.077374496 0.23480862 -0.083914496 0.37538555 0.31114864 0.40935206 -0.14172727 -0.23880556 -0.48072636
Escherichia -0.19394827 -0.0013112526 0.07551273 0.41273236 -0.14140521 -0.19453438 0.1021811 0.55960166 -0.3295181 0.06903847 0.39848873 -0.08532852 0.2659212 -0.04903932 0.39280647 0.39470166 0.51953363 -0.22331817 -0.17778763 -0.4977857
evaluation -0.0974509 0.03300651 0.0826313 0.3228624 -0.2121282 -0.119014636 0.123439066 0.40444288 -0.23913084 0.073463894 0.2854027 -0.039897528 0.23402782 -0.0825129 0.31212243 0.30636477 0.43351394 -0.19168493 -0.20587143 -0.42966568
metabolic -0.14209339 0.03994305 0.036581606 0.29788664 -0.2188015 -0.13364021 0.057918347 0.40442166 -0.24099647 0.15375102 0.28794718 -0.08276997 0.2207136 -0.093190804 0.26285526 0.35863996 0.37290522 -0.2009167 -0.20001705 -0.4576102
heart -0.15378535 0.0560835 0.11943789 0.42608774 -0.2195964 -0.18916894 0.08573772 0.5036473 -0.3010701 0.14011234 0.3113529 -0.09167417 0.19302669 -0.13991779 0.3989901 0.4274762 0.5182184 -0.19396287 -0.1809337 -0.5289734
cardiac -0.14817159 -0.036944278 0.08542557 0.3398629 -0.20116664 -0.13930619 0.04696331 0.4810951 -0.32535204 0.09513369 0.3151152 -0.046325576 0.2466739 -0.12609147 0.32768497 0.35768393 0.48594007 -0.16706619 -0.22044179 -0.49816987
mechanisms -0.17001146 0.0102331685 0.09114713 0.33533457 -0.14031789 -0.17891203 0.07733149 0.44547892 -0.28259113 0.07431994 0.30466902 -0.051170982 0.16247721 -0.05172185 0.28388947 0.2758371 0.3782205 -0.1397641 -0.1607501 -0.39862475
proteins -0.11898606 0.015432567 0.06452526 0.355411 -0.15564121 -0.13563506 0.06700205 0.45125264 -0.22746252 0.10154123 0.30745372 -0.056537244 0.22648181 -0.07287758 0.31864938 0.28451055 0.37724644 -0.14489093 -0.20966487 -0.4232944
stimulation -0.14800514 0.030521687 0.04296683 0.3907685 -0.19949111 -0.20621884 0.10406179 0.49082938 -0.33423004 0.09014276 0.3258559 -0.10893744 0.22656691 -0.0868606 0.32612884 0.35668364 0.46850872 -0.13800591 -0.19592021 -0.46259084
conditions -0.13914835 -0.0011343774 0.047627788 0.41705397 -0.22066961 -0.25085092 0.05903136 0.5206045 -0.29712304 0.15128489 0.38053748 -0.09739213 0.24462317 -0.11913705 0.3465448 0.40770158 0.5099353 -0.22073586 -0.26201588 -0.5379439
clinical -0.110647865 0.041940376 0.09284613 0.20654815 -0.19009675 -0.08795912 0.049952883 0.33975217 -0.18395677 0.055049874 0.26166996 -0.040116318 0.12009689 -0.07761164 0.28288397 0.29929465 0.3335014 -0.111488774 -0.16958158 -0.34678313
alkaline -0.17011589 0.016223442 0.07210587 0.31240812 -0.22508718 -0.12065135 0.10358056 0.4796876 -0.31308526 0.15651987 0.28314745 -0.0395374 0.2164438 -0.054109406 0.37345642 0.31779483 0.45000964 -0.183809 -0.24538054 -0.47911093
rat. -0.11803218 0.036684174 0.12186172 0.34179592 -0.2109211 -0.11447086 0.04198881 0.4211468 -0.24895908 0.14018019 0.3011795 -0.02634297 0.24180275 -0.082052305 0.2650496 0.26580998 0.41737962 -0.19262633 -0.18861906 -0.37970796
fatty -0.15748881 -0.018105796 0.069403805 0.3633764 -0.18451601 -0.15763119 0.061156116 0.5297962 -0.26455203 0.13685441 0.36542493 -0.083964035 0.24954133 -0.14544778 0.37516698 0.31111157 0.4527059 -0.24563316 -0.21661097 -0.5085504
reactions -0.15263984 0.012163652 0.095561504 0.3075882 -0.21743047 -0.19299905 0.07936217 0.44016483 -0.31629685 0.10446067 0.33102384 -0.023797745 0.15423988 -0.07563555 0.28932095 0.27147987 0.41333663 -0.17914198 -0.22608438 -0.46265936
coli -0.14873725 0.03939727 0.034917172 0.37462437 -0.18039688 -0.16459927 0.14050767 0.51565766 -0.29914135 0.1349855 0.33401886 -0.009403497 0.20888811 -0.120457426 0.34093413 0.30647767 0.43115598 -0.15869656 -0.15309331 -0.39277482
chemical -0.16535333 -0.020018937 0.11218226 0.31812668 -0.20566207 -0.15473437 0.091071546 0.44288158 -0.29118255 0.13041613 0.3474438 -0.091855586 0.19835825 -0.109335385 0.28779793 0.30892882 0.3868188 -0.12352496 -0.21085395 -0.41178352
high -0.1485489 0.034072075 0.09766468 0.38988888 -0.18840234 -0.21084417 0.079292014 0.5151601 -0.3163182 0.084650025 0.296961 -0.098487236 0.24821524 -0.08355609 0.39597714 0.38239768 0.42099965 -0.17964682 -0.15780824 -0.4727884
development -0.11271983 0.035302598 0.027824353 0.3346079 -0.1363567 -0.106771 0.035580985 0.4546802 -0.21265891 0.09357201 0.24507385 -0.020694261 0.15316088 -0.11492173 0.31297517 0.33607468 0.43354797 -0.18402092 -0.21818048 -0.3526186
aspects -0.086697936 -0.017189885 0.024013944 0.25018322 -0.17578101 -0.15935548 0.07687466 0.3952739 -0.24633795 0.06253366 0.3088202 -0.06829978 0.14115405 -0.041628566 0.2861095 0.32202348 0.33749583 -0.18838988 -0.15662597 -0.38282815
rats. -0.17186056 -0.0015934954 0.08761265 0.32982206 -0.1266533 -0.13828014 0.048176702 0.4288347 -0.2733296 0.12867458 0.25170675 -0.039402254 0.18881834 -0.111622654 0.2670516 0.33650625 0.34995574 -0.16617723 -0.16200003 -0.3713933
cyclic -0.18562505 0.025079336 0.14428423 0.31475517 -0.21393722 -0.15425569 0.120301396 0.5218525 -0.25487137 0.12550776 0.3402193 -0.07173011 0.17950816 -0.08630091 0.36441737 0.30225947 0.45558307 -0.18870237 -0.20760345 -0.4342315
sodium -0.14782557 -0.020833248 0.11211101 0.27944896 -0.22502743 -0.17145845 0.0374156 0.46571925 -0.25690454 0.09605607 0.2716092 -0.05813442 0.19904731 -0.07176437 0.357006 0.34992543 0.46248522 -0.22416842 -0.13737628 -0.44466406
assay -0.07935553 0.025110299 0.09651334 0.25877982 -0.2195242 -0.110153325 0.05828541 0.46348926 -0.22626229 0.10043699 0.34059244 -0.059741996 0.14536332 -0.12797703 0.3059544 0.26251426 0.44757763 -0.1536764 -0.22531712 -0.37967473
distribution -0.06805173 0.035280302 0.0983407 0.21502648 -0.14323099 -0.18723683 0.04517404 0.39627555 -0.23038156 0.10242004 0.27484968 -0.038678225 0.2024146 -0.039956376 0.24437882 0.3113205 0.3885628 -0.10300351 -0.13409731 -0.3873946
tyrosine -0.17132133 0.012353522 0.08432352 0.39564776 -0.19042076 -0.15583245 0.10384566 0.459707 -0.255522 0.16062272 0.32159293 -0.04611126 0.18002562 -0.13945262 0.39260587 0.32925498 0.49648514 -0.17844224 -0.217825 -0.45726386
secretion -0.13743892 -0.0017491747 0.06682529 0.30450565 -0.16306557 -0.1384377 0.015694566 0.45289758 -0.27942166 0.13836083 0.281617 -0.08362829 0.1551071 -0.11922675 0.25010267 0.31422842 0.41252506 -0.1399136 -0.1574847 -0.33368355
uptake -0.16269182 0.0051279464 0.09639925 0.28957498 -0.23813999 -0.21315415 0.12781481 0.49262705 -0.294469 0.06817465 0.31195346 -0.04287636 0.19850625 -0.090493605 0.3034538 0.34883755 0.4287102 -0.13147031 -0.24184225 -0.4694517
molecular -0.19337475 0.0046448517 0.039350696 0.35890508 -0.21955432 -0.20262788 0.11676724 0.43534407 -0.2728066 0.071181454 0.36289787 -0.008575255 0.22227354 -0.06583774 0.35273817 0.30015883 0.48700863 -0.23222372 -0.146534 -0.44140118
calcium -0.15357661 -0.010558992 0.12753546 0.29587272 -0.14195322 -0.19992723 0.12274703 0.47213125 -0.23459865 0.09392796 0.3319531 -0.009533287 0.21960194 -0.09082726 0.3531017 0.36944258 0.46448076 -0.13289808 -0.15731098 -0.40520737
preparation -0.068160884 0.010254341 0.06532135 0.29164365 -0.15853797 -0.13784629 0.026143303 0.35681397 -0.24872534 0.14009613 0.2460303 -0.08420031 0.20697601 -0.083301224 0.289078 0.29957283 0.38523003 -0.11954675 -0.15700144 -0.3857213
agents -0.08811731 0.01976392 0.0549814 0.3438173 -0.14975187 -0.14699364 0.06301605 0.47197223 -0.23761915 0.1445738 0.30885693 -0.09778784 0.20682257 -0.08837336 0.3370897 0.26130188 0.46723962 -0.21112137 -0.15587386 -0.47878256
mice -0.08726775 0.046176806 0.086879075 0.32397223 -0.1928456 -0.17790298 0.05437952 0.5342956 -0.2815285 0.129841 0.2888524 -0.011417411 0.21935906 -0.099407695 0.29081792 0.36817017 0.49408475 -0.15628292 -0.23323408 -0.51256275
cytochrome -0.14400539 0.002584244 0.0253935 0.24281564 -0.17061257 -0.14292522 0.01975273 0.40266183 -0.23714659 0.13199554 0.2824455 -0.047138296 0.14268017 -0.116081014 0.28646666 0.3258985 0.40720525 -0.1633076 -0.16436225 -0.43979645
various -0.15123954 -0.01809996 0.11446821 0.32766643 -0.21536858 -0.2285908 0.08061904 0.46591917 -0.3000103 0.09838321 0.31160337 -0.07687473 0.17720997 -0.10445758 0.3549307 0.3323442 0.41172898 -0.21460313 -0.24413438 -0.47419003
beta -0.11839927 -0.011810458 0.10673525 0.38115 -0.15093896 -0.1585883 0.13829556 0.4685107 -0.35064632 0.082768954 0.2998189 -0.10699043 0.18099813 -0.116553955 0.3666647 0.33933187 0.41308364 -0.17158653 -0.20296676 -0.46781212
diagnosis -0.08486879 0.044512555 0.07031951 0.30576435 -0.19247894 -0.14193335 0.09226222 0.47342488 -0.26208854 0.1101959 0.24587353 -0.058392935 0.2257071 -0.10294618 0.28934053 0.24164319 0.33129415 -0.11212511 -0.20093189 -0.37261802
water -0.143697 -0.0065922476 0.022535786 0.2907888 -0.113938406 -0.10551517 0.110882655 0.3702076 -0.2647255 0.13053407 0.21331729 -0.0039684125 0.1944664 -0.08205747 0.21553238 0.2495846 0.36367324 -0.1822275 -0.14257148 -0.38664067
fluid -0.07569512 -0.007343418 0.11419846 0.25008723 -0.20673364 -0.18692751 0.047248848 0.42680568 -0.23427226 0.13932534 0.28246313 -0.03325812 0.19773728 -0.038843695 0.27213648 0.31865576 0.3174609 -0.14456497 -0.1704873 -0.38120195
disease -0.07193422 -0.008547093 0.046766765 0.24867563 -0.1451031 -0.14497365 0.09250943 0.32861605 -0.16850851 0.08754904 0.2493952 -0.025627103 0.16207072 -0.06830347 0.2398987 0.27678946 0.3309879 -0.15174827 -0.18917662 -0.3959465
kinetic -0.10150689 -0.019513464 0.057972144 0.22972977 -0.1816632 -0.1249798 0.09729308 0.36250168 -0.2540063 0.097673334 0.2399683 -0.066870615 0.15160206 -0.07900419 0.23790915 0.20437488 0.37034747 -0.11560209 -0.16177411 -0.30893716
adrenergic -0.13362516 0.04431455 0.07680947 0.36430112 -0.1767462 -0.20509648 0.05198537 0.52880377 -0.27729738 0.11189613 0.3566617 -0.089332186 0.1994169 -0.13706526 0.29743326 0.29121402 0.45659295 -0.1741787 -0.15939513 -0.43757072
children -0.09606211 0.038965866 0.05363639 0.28301015 -0.107955135 -0.1357626 0.09615884 0.355943 -0.1931196 0.114912845 0.2815349 -0.09494447 0.16706774 -0.06345532 0.2392773 0.2348351 0.37741435 -0.18237752 -0.18300909 -0.32623154
newborn -0.18018131 0.06168521 0.082977034 0.3635452 -0.21338753 -0.20474 0.02870828 0.49698877 -0.3207121 0.099513486 0.3680287 -0.09974228 0.18141554 -0.12678498 0.31038833 0.28990576 0.43912002 -0.1356328 -0.16342211 -0.49900174
flow -0.17129111 -0.016225204 0.013889444 0.258918 -0.20106138 -0.13388072 0.032021616 0.43009204 -0.2326744 0.13021767 0.27834344 -0.11348716 0.21004638 -0.118257545 0.32644278 0.31039214 0.43688115 -0.15856689 -0.19185652 -0.37407643
responses -0.16056265 -0.03430098 0.08987062 0.28079802 -0.18829195 -0.16488808 0.021792322 0.43211365 -0.25322196 0.08385567 0.29246575 -0.028296389 0.22646475 -0.12466226 0.2757942 0.2539332 0.34624302 -0.1822453 -0.17969184 -0.45035827
dopamine -0.14125356 -0.0034923672 0.10349263 0.26915017 -0.101796 -0.1763218 0.04283462 0.37886593 -0.17567755 0.09046151 0.26235807 -0.043739375 0.18420799 -0.1282966 0.28178692 0.28984886 0.37308097 -0.11821994 -0.19119845 -0.3840249
concentration -0.09395975 0.0079430165 0.025869781 0.33717546 -0.2094257 -0.12649938 0.104989834 0.42676374 -0.25248328 0.13926427 0.28219047 -0.06194719 0.24652427 -0.0480424 0.27298993 0.35422668 0.457996 -0.18906534 -0.17605025 -0.44775867
induction -0.05902466 0.0061514345 0.09115147 0.2981974 -0.1188827 -0.1616144 0.053478625 0.36828732 -0.19801086 0.0989043 0.28814295 -0.018448303 0.20804937 -0.119174235 0.2203897 0.25928164 0.34933722 -0.13935654 -0.18178365 -0.35662737
following -0.19978097 0.05652558 0.11228877 0.32410097 -0.19111079 -0.17094907 0.06018858 0.5019961 -0.3033399 0.16981426 0.29592317 -0.057298113 0.19721486 -0.11046807 0.38495213 0.34297684 0.46565777 -0.20058012 -0.2433979 -0.465773
potential -0.10497987 -0.0376044 0.06696807 0.32441157 -0.21356624 -0.19446251 0.032356996 0.42427453 -0.21616445 0.14065965 0.30991784 -0.09523477 0.22729827 -0.07118951 0.31957623 0.26903203 0.39370266 -0.16886428 -0.22335798 -0.41301513
coronary -0.12659308 -0.028548712 0.031903546 0.32972908 -0.21146646 -0.17649952 0.100089975 0.42364687 -0.26307034 0.074100114 0.27625945 -0.02807759 0.15570007 -0.10800909 0.26871243 0.27240884 0.3484118 -0.2132428 -0.13406406 -0.3589946
cerebral -0.16018294 -0.049243484 0.060490448 0.29735184 -0.13674237 -0.15040815 0.045108058 0.45100704 -0.33105788 0.12428237 0.29662234 -0.07614089 0.23330984 -0.051586155 0.34654015 0.294382 0.46738473 -0.23925251 -0.2414754 -0.4836825
complex -0.12795952 0.0074306848 0.047905333 0.28206745 -0.10745493 -0.1060986 0.06987107 0.44245914 -0.22278693 0.08868382 0.22388016 -0.012283258 0.12510261 -0.09398736 0.3150255 0.26326463 0.36086202 -0.18365335 -0.13418844 -0.33507273
blocking -0.17290486 -0.01355551 0.1183711 0.32429007 -0.16082226 -0.15839414 0.023220066 0.49091163 -0.27069095 0.07829884 0.30561513 -0.05477716 0.15965122 -0.06070159 0.29272744 0.27378246 0.43383616 -0.13870795 -0.1303192 -0.41115606
diseases -0.10054548 -0.032580685 0.08614909 0.29548606 -0.14552014 -0.13701305 0.03935323 0.3627631 -0.25344554 0.11090164 0.24058379 0.0066358075 0.12593699 -0.09964484 0.2164948 0.21346036 0.34023085 -0.11089599 -0.14086246 -0.3219473
hepatic -0.15919821 -0.0028160857 0.02482919 0.27812755 -0.1629853 -0.09391487 0.049707748 0.4226433 -0.203884 0.09517834 0.2551453 0.0007402747 0.184051 -0.037539303 0.2860594 0.29794452 0.3772961 -0.17987867 -0.18923998 -0.35503972
Treatment -0.09295168 0.018793548 0.056472506 0.25789726 -0.14428094 -0.11222391 0.08611877 0.3297064 -0.16492192 0.09935393 0.20162721 -0.07918144 0.1568469 -0.10888581 0.2107373 0.17461534 0.2878892 -0.16429386 -0.08990317 -0.33186424
oxidase -0.0771412 -0.039295264 0.050886616 0.31686392 -0.19022302 -0.1554343 0.056759447 0.44596085 -0.29455787 0.0495128 0.3252854 -0.045509126 0.23171315 -0.1275015 0.33071992 0.256396 0.44828144 -0.13793945 -0.20995347 -0.37959412
synthetase -0.1551026 -0.04328896 0.07982934 0.32206663 -0.21252011 -0.21081772 0.1324484 0.44978246 -0.25511855 0.11248059 0.27186188 -0.035798818 0.20657256 -0.028423637 0.2713706 0.31705344 0.4309573 -0.20031942 -0.22335182 -0.3624161
induced -0.088047236 -0.0131010115 0.0946849 0.29288197 -0.18924555 -0.15355816 0.046485562 0.45020947 -0.23288372 0.05639803 0.27361208 -0.058742903 0.2252916 -0.08971203 0.33410138 0.30212817 0.36008757 -0.11920535 -0.15525843 -0.42129973
acidosis -0.14653942 -0.009521199 0.039675046 0.30186772 -0.2069351 -0.1731201 0.08475204 0.4105726 -0.20713632 0.07646043 0.2675792 -0.03834556 0.21179251 -0.07258901 0.33456466 0.3045761 0.33324236 -0.1665971 -0.2069906 -0.41353336
arterial -0.12450977 -0.04839866 0.10719289 0.27391213 -0.15674031 -0.16736305 0.0198937 0.34603283 -0.18783893 0.07894144 0.28429285 -0.07856725 0.2219725 -0.060709707 0.2795763 0.25080833 0.367796 -0.16254854 -0.1244817 -0.35034934
liver. -0.09219967 0.0320948 0.083627164 0.20108095 -0.085470095 -0.11061994 0.024792908 0.40048984 -0.20978965 0.12662844 0.22798252 -0.006177735 0.16617286 -0.09262844 0.2303229 0.2854127 0.33241665 -0.16350576 -0.14679477 -0.34143475
ion -0.12538928 -0.030956648 0.11203125 0.32130912 -0.13294342 -0.13765822 0.059539456 0.47805524 -0.27233657 0.055707548 0.33897245 0.0019354025 0.24842177 -0.11423769 0.27153617 0.34134418 0.36806157 -0.12499642 -0.16779605 -0.40462038
body -0.10660702 0.010107971 0.067020625 0.31569678 -0.12847713 -0.1947877 0.06943145 0.44092816 -0.23933274 0.13804106 0.27753577 -0.032827824 0.17913736 -0.07667682 0.35778022 0.3326599 0.38607526 -0.18621707 -0.14197291 -0.37580478
health -0.0836325 -0.008308458 0.059447207 0.25074345 -0.1763447 -0.12699613 0.031734277 0.37436897 -0.19671176 0.14443353 0.3074785 -0.041499313 0.13398595 -0.119525105 0.2903819 0.23036602 0.32614645 -0.14498755 -0.17840604 -0.43117568
beta-adrenergic -0.08187321 -0.04216774 0.039855022 0.27179208 -0.13949274 -0.14979292 0.040615987 0.4408541 -0.19075169 0.05577431 0.3194775 -0.015034861 0.1403535 -0.09546319 0.3021851 0.3125257 0.34577104 -0.18692729 -0.13665222 -0.43135875
composition -0.13647108 -0.0005275051 0.08661453 0.22460984 -0.11332477 -0.13298643 0.07659057 0.4006108 -0.20374706 0.12825738 0.2353723 -0.08677263 0.20767973 -0.097786985 0.28226405 0.2322473 0.29510304 -0.1717604 -0.11848538 -0.35123116
ionic -0.117080875 -0.0407447 0.049129695 0.27212116 -0.124781154 -0.19756545 0.10349177 0.43207666 -0.25475994 0.15051794 0.26735163 -0.08964087 0.19542924 -0.050880272 0.35216045 0.28397524 0.4050015 -0.14443158 -0.20481825 -0.37569508
II -0.13911313 0.017445976 0.08635613 0.27158344 -0.16673593 -0.12141322 0.103299744 0.42021182 -0.2647881 0.11341132 0.26917437 -0.05154018 0.21272881 -0.09209855 0.24822952 0.22269458 0.3196107 -0.14018492 -0.16493133 -0.37951759
bile -0.09332378 -0.013337393 0.030786192 0.3390975 -0.11697242 -0.13784914 0.07566841 0.43130702 -0.2597258 0.14185163 0.248647 -0.045705672 0.21427663 -0.10125266 0.30727848 0.31447098 0.4434425 -0.14830033 -0.12499845 -0.44344145
type -0.10077387 -0.011007313 0.05874434 0.3545326 -0.22199677 -0.20832932 0.094939254 0.56892204 -0.34099 0.07162725 0.31618837 -0.009709608 0.17551896 -0.049644176 0.36045873 0.3643499 0.45027247 -0.22792265 -0.19247483 -0.44491
histamine -0.14666852 -0.0045034713 0.07376344 0.2871498 -0.11402295 -0.15835337 0.102894604 0.35458773 -0.23870754 0.13848884 0.28338188 -0.08749789 0.1664854 -0.12405153 0.25955275 0.29746142 0.30893552 -0.11554274 -0.12460089 -0.38248876
biochemical -0.13945061 -0.0065194406 0.040408973 0.228973 -0.0761802 -0.10084048 0.04012446 0.32631132 -0.21220745 0.06746284 0.19594893 0.015645051 0.11181823 -0.09670884 0.23081277 0.22975002 0.24541013 -0.14967652 -0.13519974 -0.3124305
relationship -0.14808698 -0.011693769 0.045754243 0.27689633 -0.13517228 -0.11940538 0.06388589 0.3447264 -0.1929253 0.08479144 0.2658529 -0.04717589 0.113583595 -0.06814987 0.2993322 0.22378947 0.3002599 -0.14928682 -0.09926257 -0.34615645
factor -0.07302466 -0.033973783 0.114202045 0.23030274 -0.11246464 -0.13895294 0.0833362 0.3839339 -0.19518188 0.124609694 0.23906845 -0.0951484 0.21890855 -0.11346181 0.23535235 0.29992482 0.34769258 -0.193683 -0.1105632 -0.40296173
test -0.12720865 -0.014353331 0.04106176 0.24682924 -0.18043332 -0.16796337 0.02353945 0.44385225 -0.19731419 0.07825754 0.2728828 -0.08762967 0.21562085 -0.0398821 0.28058222 0.23879148 0.34558538 -0.1282594 -0.1750535 -0.35774344
bovine -0.061118174 0.030739488 0.039574627 0.29437205 -0.16085088 -0.16865276 0.10516627 0.34661517 -0.23079804 0.081139885 0.20821899 -0.050244987 0.19816446 -0.104414254 0.23706913 0.30150038 0.33707947 -0.19261596 -0.15445164 -0.37155694
abdominal -0.06834199 0.00649787 0.108291596 0.21086156 -0.12696949 -0.10035188 0.06521412 0.367873 -0.21657336 0.08629009 0.2074459 -0.07699069 0.17887689 -0.09050564 0.33026823 0.26209658 0.38025412 -0.13795792 -0.11469177 -0.4170359
administration -0.11525953 -0.0065912004 0.08649147 0.3106741 -0.21175528 -0.117906325 0.05982957 0.4678677 -0.29882872 0.12650405 0.34934384 -0.05874693 0.23363018 -0.09191293 0.35669056 0.35801756 0.41357774 -0.18520267 -0.23278657 -0.37751633
primary -0.113088824 0.015689425 0.046509594 0.28573108 -0.09704868 -0.11662491 0.076120205 0.39019257 -0.19527884 0.11557333 0.23672874 -0.05208089 0.18557699 -0.08978252 0.23446038 0.2944632 0.27701277 -0.15312888 -0.15642115 -0.3094246
oxidation -0.072273545 -0.02575821 0.09215715 0.25750878 -0.19468568 -0.14271641 0.059353072 0.35222352 -0.22020085 0.06523509 0.2750632 0.0010225729 0.15839708 -0.05845858 0.2561455 0.25786108 0.30304456 -0.13510811 -0.13507482 -0.3156392
hydrolysis -0.062514015 0.02343168 0.079020835 0.19565515 -0.13783084 -0.15340076 0.09213504 0.3798087 -0.21859355 0.08879804 0.24798512 -0.030439122 0.1547775 -0.10002281 0.28656384 0.19835031 0.2769449 -0.15776104 -0.17150114 -0.33497226
activation -0.17010851 0.01256339 0.055180285 0.2784544 -0.13247402 -0.12855779 0.08207918 0.42507163 -0.1991801 0.10077678 0.30345103 0.0018718572 0.13860083 -0.13518715 0.3493435 0.31153202 0.37395123 -0.13388744 -0.19744721 -0.43909052
rapid -0.14316621 0.04575925 0.044843692 0.20720463 -0.1700922 -0.095319405 0.04850997 0.33201692 -0.2168765 0.075025216 0.220089 -0.052448947 0.17972234 -0.06281253 0.22945958 0.26180726 0.3542648 -0.18391584 -0.17923115 -0.3062417
excretion -0.14880982 0.01329411 0.011959921 0.28764465 -0.1609229 -0.1583743 0.052639082 0.35248977 -0.16996765 0.13282037 0.23568274 -0.02815754 0.18426132 -0.07357175 0.21592839 0.24469721 0.33231124 -0.09799811 -0.16599199 -0.39223203
modification -0.079993896 0.059854094 0.022224046 0.24920541 -0.16660948 -0.09484677 0.11126425 0.36627012 -0.18716241 0.12062185 0.26225734 -0.08532105 0.17667894 -0.083222285 0.24419859 0.27929565 0.32881257 -0.086354166 -0.15054145 -0.34920815
case -0.078213155 -0.04058489 -0.010341481 0.18479864 -0.12508284 -0.066016905 0.05821875 0.19443627 -0.14918666 0.023243947 0.10754419 -0.024166176 0.15058737 -0.07984025 0.13988726 0.20183448 0.2553189 -0.036328636 -0.14375778 -0.19422181
urine -0.13624683 0.046456728 0.08908154 0.21847 -0.10067947 -0.16665058 0.08053327 0.3752066 -0.1748675 0.11164192 0.2153338 -0.02271301 0.1179706 -0.09917689 0.25484025 0.19001421 0.31549013 -0.12606634 -0.098336555 -0.3676103
bacterial -0.11281033 -0.012728872 0.034064744 0.23685014 -0.11060149 -0.14978513 0.050294034 0.39544573 -0.21005593 0.06275446 0.2659122 -0.034155473 0.15106355 -0.022497807 0.28487992 0.26120564 0.3297902 -0.14599635 -0.098519795 -0.3038873
surgery -0.12402475 -0.030817952 0.053441226 0.18778358 -0.112039484 -0.16676128 0.045816008 0.34803504 -0.17866467 0.095210105 0.16794662 -0.016926052 0.18300796 -0.050660767 0.28188533 0.24767756 0.33494455 -0.07952234 -0.1461004 -0.322494
biological -0.07039207 -0.034504574 0.07998558 0.17288715 -0.13146923 -0.11710329 0.09061201 0.3051599 -0.17755468 0.054957487 0.18320492 -0.04248106 0.10628377 -0.08300824 0.2071227 0.22600418 0.2733896 -0.0726724 -0.11230076 -0.2947647
receptor -0.15220264 0.040812444 0.10453047 0.24098566 -0.12716788 -0.09089718 0.034690168 0.38209903 -0.27861223 0.107860416 0.2399906 -0.040722325 0.21837297 -0.12225872 0.23236836 0.28092846 0.31435078 -0.19680354 -0.2035835 -0.37728804
associated -0.10259943 0.008213978 0.04868821 0.27169165 -0.080285124 -0.15014838 0.10253114 0.28144515 -0.19854093 0.08886784 0.21563527 -0.055942796 0.14700688 -0.06333849 0.18123868 0.19983551 0.2548137 -0.10169711 -0.1365048 -0.348095
problems -0.06445709 0.0070222863 0.0712674 0.2578308 -0.14626972 -0.077324 0.010578882 0.31130904 -0.23010638 0.085078 0.17725798 0.009528979 0.1777631 -0.10580525 0.26144665 0.2596491 0.26271135 -0.10292547 -0.17314026 -0.26945034
L. -0.06435806 0.003345511 0.0061980616 0.20463972 -0.11673495 -0.0980785 0.10054296 0.28194043 -0.21715991 0.02175457 0.19051936 -0.025139077 0.13025498 -0.07156538 0.24517955 0.20293564 0.29932696 -0.09113539 -0.15689428 -0.28867286
derivatives -0.14727236 -0.031474296 0.051143587 0.3017065 -0.15136972 -0.092756845 0.05515201 0.36359495 -0.20612115 0.098194495 0.2552471 -0.058022384 0.1421968 -0.056934953 0.2360271 0.22576655 0.30230898 -0.102045506 -0.13323547 -0.32810885
activities -0.07145316 -0.027082661 0.09195486 0.30778164 -0.12404412 -0.16741976 0.11725201 0.40052372 -0.20985028 0.13292594 0.2800494 -0.021868398 0.22233923 -0.0715723 0.33485952 0.31292036 0.38012064 -0.12430354 -0.15100498 -0.42311272
hemoglobin -0.08296199 0.0026910256 0.07844681 0.19081603 -0.14521469 -0.11838 0.07025196 0.28850192 -0.15154544 0.05674886 0.2399269 -0.022123406 0.17506629 -0.08685137 0.20306408 0.23612195 0.27438053 -0.09100308 -0.15976655 -0.29338825
affinity -0.12498633 0.002000024 0.08216905 0.26485053 -0.17809331 -0.19516897 0.08400701 0.44001174 -0.27053455 0.13350666 0.2895536 -0.07871703 0.17299129 -0.06279242 0.2497052 0.2944587 0.40205428 -0.12343011 -0.1348296 -0.3683206
transfer -0.13232365 -0.022184514 0.10758092 0.23093113 -0.1620268 -0.15847184 0.0991793 0.36450186 -0.21376348 0.104322396 0.23658606 -0.087307744 0.13317335 -0.06416574 0.22834174 0.30454838 0.3394016 -0.19349796 -0.18467173 -0.3311558
chromatography -0.118048504 0.039613094 0.01682256 0.21655904 -0.18146418 -0.13703735 0.029581433 0.33827165 -0.27165967 0.086633846 0.28972068 -0.08800978 0.14586721 -0.07150506 0.2872953 0.22507297 0.38610253 -0.1848722 -0.12965353 -0.3192449
medium -0.08215836 0.040918153 0.10444995 0.2799609 -0.18327655 -0.10735364 0.025361061 0.34947965 -0.18964781 0.056136783 0.21863028 -0.06213174 0.18861993 -0.04943218 0.27947557 0.2892709 0.33028197 -0.12344421 -0.18492796 -0.37209085
inhibitors -0.1430465 0.009437554 0.08171672 0.26657704 -0.15697376 -0.11458049 0.103419885 0.32809427 -0.22690082 0.082588665 0.20790385 0.003025224 0.19593391 -0.027832152 0.29382184 0.20408069 0.31342688 -0.17105976 -0.16605063 -0.37789902
possible -0.099903055 0.0072773565 0.029570008 0.31009886 -0.14757515 -0.13472693 0.04910563 0.37490034 -0.238846 0.12955979 0.27013618 -0.0756484 0.19736584 -0.07538379 0.2592609 0.30908555 0.33707964 -0.1068818 -0.18016657 -0.41007742
resonance -0.1466538 -0.019327013 0.0633713 0.26808447 -0.13265705 -0.12566207 0.06186911 0.43671605 -0.2563909 0.09570732 0.26497903 -0.06263036 0.15647817 -0.10201482 0.29078382 0.30198422 0.31836477 -0.12411275 -0.17355832 -0.4072479
electron -0.12969618 -0.020472046 0.036252253 0.1939357 -0.14601466 -0.17038147 0.039920278 0.3298731 -0.16251795 0.07959706 0.20141128 -0.009440927 0.123406745 -0.079591796 0.2663687 0.21785332 0.28346038 -0.16766348 -0.10721989 -0.29716086
active -0.08058303 0.017300492 0.07558376 0.21624064 -0.08327935 -0.09115192 0.07772846 0.3949963 -0.2442996 0.082742095 0.2745051 -0.045298744 0.119254164 -0.08352153 0.22883162 0.22617418 0.3051961 -0.0930212 -0.13672486 -0.30444604
model -0.14101808 0.047837134 0.039658688 0.24091826 -0.18626417 -0.19156717 0.045462206 0.43127307 -0.2354815 0.108969145 0.3032524 -0.056835312 0.20138416 -0.08308735 0.33616498 0.33867177 0.37947115 -0.1528299 -0.20490786 -0.42550936
quantitative -0.123505615 0.008015274 0.02142601 0.18622632 -0.11316327 -0.09039879 0.0034005768 0.31455976 -0.15036845 0.09440729 0.18284698 0.012684829 0.18627763 -0.06332677 0.21281208 0.1670671 0.25609997 -0.112291306 -0.10299949 -0.29214033
inhibitor -0.13125387 0.032968204 0.012986646 0.2565027 -0.09041222 -0.1440789 0.07027138 0.35363415 -0.21015093 0.04192508 0.25091907 -0.02754161 0.18937643 -0.1132788 0.21084875 0.2550813 0.27459592 -0.1285997 -0.1592959 -0.32547334
vitro. -0.123397246 0.054144476 0.04360638 0.17408963 -0.079505436 -0.12511867 0.04212864 0.3183391 -0.17027701 0.051139083 0.20814767 -0.052602906 0.18331374 -0.03003861 0.22669926 0.18927507 0.30263793 -0.11368203 -0.15700604 -0.3282858
mouse -0.11905244 0.017787883 0.021304158 0.22566582 -0.10046264 -0.14659446 0.10636463 0.36815998 -0.24186465 0.058628377 0.23991878 -0.019665854 0.12628931 -0.10343227 0.21655513 0.28599164 0.32078668 -0.114543885 -0.15999171 -0.383792
yeast -0.10332207 0.00835667 0.07543454 0.19079968 -0.16593513 -0.1535158 0.07575161 0.32447204 -0.1961538 0.1011007 0.24792129 -0.026445197 0.13730723 -0.06671134 0.20972075 0.20418102 0.35549462 -0.14685702 -0.18629883 -0.30486283
detection -0.07598041 0.008454203 0.08293108 0.25898656 -0.18142086 -0.18751287 0.02901578 0.36221653 -0.2671649 0.14097957 0.31496316 -0.060101986 0.17616922 -0.0419656 0.29176927 0.25346583 0.38423443 -0.14138928 -0.1823955 -0.4110409
production -0.028936792 0.04546031 0.005044969 0.15674458 -0.095356904 -0.090432175 0.0063817394 0.3210492 -0.18539381 0.086190775 0.22330129 -0.024240637 0.13953455 -0.06416914 0.14033625 0.19055349 0.23714298 -0.15620269 -0.07327223 -0.292615
group -0.10252916 -0.019277558 0.027451728 0.25484765 -0.1371268 -0.1827447 0.10261809 0.43557206 -0.20964573 0.14258955 0.33923492 -0.012019122 0.15738562 -0.13715057 0.2839009 0.301164 0.4228953 -0.14566985 -0.19019736 -0.3926833
physiological -0.12987801 -0.030171035 0.08951207 0.21415633 -0.14117622 -0.15675941 0.10571427 0.36193094 -0.20516331 0.05786425 0.295078 -0.071396016 0.18626826 -0.060319383 0.30975235 0.2369103 0.31656975 -0.17243302 -0.12114702 -0.3847556
activity. -0.06984844 0.0022995318 0.09028395 0.19531547 -0.12843703 -0.12062203 0.009775609 0.38224912 -0.20555845 0.10951103 0.22012116 -0.012504687 0.15766998 -0.02156002 0.19079852 0.27677506 0.34813932 -0.12274952 -0.11515521 -0.2972454
antibody -0.09264614 -0.005323242 0.08001054 0.29713264 -0.14333235 -0.102996536 0.031933457 0.43357062 -0.29810634 0.091659956 0.23287436 -0.029484332 0.18512335 -0.09214128 0.32818985 0.25605747 0.39710787 -0.17841907 -0.18984003 -0.44061646
compounds -0.15004274 0.04704657 0.024466274 0.27959526 -0.16120645 -0.13892573 0.075162984 0.3335778 -0.24678622 0.049179055 0.19494331 -0.067122675 0.1499339 -0.076938204 0.25916556 0.22232331 0.32028294 -0.15721263 -0.18227313 -0.3891342
man. -0.10863475 -0.036263283 0.009319225 0.18444537 -0.10502373 -0.15220356 0.036629423 0.35692233 -0.15176532 0.044069752 0.24755621 -0.07941487 0.14638832 -0.034645278 0.20956098 0.26936355 0.29142827 -0.10018939 -0.09579118 -0.35365397
species -0.09700908 -0.031699266 0.031760175 0.11698473 -0.08748894 -0.1191163 0.042872246 0.22253197 -0.097459026 0.0081110615 0.13202704 0.0048643127 0.14598171 -0.05348412 0.15815932 0.12510736 0.2070454 -0.124565706 -0.12760907 -0.20564392
glutamine -0.10389481 0.034947835 0.0014405537 0.2531791 -0.13413763 -0.15342024 0.061177813 0.38238803 -0.24504006 0.08435036 0.25221667 -0.02509114 0.172452 -0.021576827 0.27282244 0.2585538 0.36087826 -0.16920735 -0.098051615 -0.3038005
medical -0.07885232 -0.018769406 0.06224986 0.14765437 -0.11441497 -0.054926563 0.027816376 0.17661135 -0.06332256 0.0045279805 0.16311963 -0.069681756 0.109175056 0.009708748 0.102045156 0.07447341 0.18648106 -0.11267774 -0.11216731 -0.16752782
hydroxylase -0.16069706 0.05739033 0.11265127 0.2934177 -0.11235073 -0.08919464 0.09492981 0.44457695 -0.21234302 0.13026421 0.30116168 -0.0074677668 0.1396773 -0.042724527 0.33321953 0.33724725 0.32979748 -0.17274964 -0.17242526 -0.36897045
culture -0.15267064 0.010584172 0.09769805 0.31345308 -0.16223353 -0.1290001 0.10096174 0.38108677 -0.2132318 0.04511468 0.257227 -0.025227848 0.18972854 -0.12831154 0.23845646 0.28385562 0.3564044 -0.17019022 -0.1221591 -0.34997472
hypertension -0.117164314 0.056394428 0.0013166256 0.17010851 -0.050645467 -0.08922066 0.017575387 0.26968113 -0.17414726 0.02919175 0.13414666 -0.009457149 0.07142871 -0.033735506 0.15880935 0.2131882 0.21859181 -0.131567 -0.072415665 -0.2998162
mice. -0.078165546 -0.007620965 0.017687073 0.16253863 -0.08064742 -0.12963392 0.07204027 0.24678078 -0.16365914 0.05884122 0.1628569 -0.04656254 0.086495735 -0.07804533 0.19288169 0.19377159 0.24022093 -0.1589407 -0.088239916 -0.2837186
DNA -0.059146427 0.021143872 0.09917329 0.19881885 -0.16781113 -0.10472543 0.006732415 0.34599307 -0.14031224 0.074846886 0.24621384 0.010650574 0.15909965 -0.033257276 0.26416692 0.22519967 0.24077033 -0.16013959 -0.13534386 -0.29762354
membranes. -0.05391419 -0.037117258 0.04006492 0.27314764 -0.13256168 -0.16266035 0.066353634 0.2998971 -0.2203092 0.046468385 0.21345407 -0.0019064648 0.16885509 -0.025908662 0.27780008 0.25155824 0.26767424 -0.087582335 -0.17936614 -0.3364079
upon -0.066855915 0.046986286 0.03571487 0.20072432 -0.10157224 -0.15115012 0.0422173 0.39688566 -0.18191731 0.10163677 0.22922052 -0.003896279 0.19764502 -0.036007352 0.295418 0.21776636 0.33038855 -0.1442357 -0.118798055 -0.2888942
urinary -0.049369436 0.026323106 0.07200838 0.20478864 -0.10038702 -0.13221058 0.03321881 0.30117223 -0.17327811 0.064891696 0.19512212 -0.06545116 0.15662488 -0.04200789 0.18846436 0.21494858 0.24202006 -0.092654236 -0.15013653 -0.19156016
low -0.17242195 0.05527484 0.0940105 0.2833454 -0.19814196 -0.09910251 0.06942025 0.44274414 -0.2561661 0.07154165 0.26774448 -0.088260256 0.14855841 -0.12989181 0.31343672 0.2879426 0.36889577 -0.13137104 -0.17304054 -0.42858744
iII 0.014342403 -0.02980808 0.002445483 0.04738257 -0.004772997 0.030700494 0.022315765 -0.017673444 -0.026131809 0.04426662 0.010524118 -0.0022620796 0.004476988 -0.02460662 0.017685581 -0.015499175 0.021069407 -0.02278291 -0.003964615 0.019510318
separation -0.1330406 -0.005492827 0.011015271 0.2371226 -0.12541452 -0.11214339 0.062492546 0.33418664 -0.18539989 0.076375455 0.25019565 -0.057120055 0.12682629 -0.09641249 0.18516816 0.19262157 0.31644553 -0.10623474 -0.17005824 -0.36583987
erythrocyte -0.117087856 0.029815499 0.0010231526 0.22083881 -0.08162704 -0.069926016 0.008441459 0.302995 -0.1982226 0.11388716 0.16243392 -0.04791033 0.15356971 -0.060341474 0.23049533 0.17850171 0.28282613 -0.15683216 -0.085426435 -0.28177422
state -0.13731599 0.006228936 0.055748012 0.25143236 -0.1532822 -0.18352714 0.02351425 0.34202015 -0.2636897 0.06689643 0.29720053 -0.054746903 0.13007794 -0.109133326 0.2814792 0.25204876 0.3361877 -0.16232976 -0.122978054 -0.39834142
measurement -0.14649792 0.04588765 0.02666687 0.26555914 -0.14581497 -0.087104484 0.084618665 0.38507122 -0.20682123 0.09764434 0.2559192 -0.058438145 0.18719733 -0.04416741 0.3056404 0.25402337 0.33156237 -0.10700955 -0.19809075 -0.35832343
presence -0.1446651 0.030258434 0.016832786 0.28379688 -0.10280981 -0.14344695 0.024731273 0.34787077 -0.20813997 0.06698397 0.28264388 -0.04920199 0.21448947 -0.07992747 0.23664932 0.23902985 0.3554902 -0.17261346 -0.11941096 -0.380525
agent -0.1135733 0.010022898 0.024168879 0.17275615 -0.14501847 -0.12231494 0.051188126 0.32784685 -0.14362366 0.10855621 0.23206076 -0.034414466 0.108513646 -0.014731178 0.21610394 0.2390153 0.2753476 -0.08793727 -0.10061381 -0.33204526
sea -0.124358214 0.006981476 0.07395767 0.20626049 -0.11734385 -0.10908974 0.06414666 0.3473384 -0.2497069 0.1263415 0.19319327 -0.07789097 0.18437214 -0.11987345 0.2361077 0.23967995 0.31783384 -0.17481174 -0.11998189 -0.33783495
substrate -0.07411991 -0.0016502509 0.09130292 0.17819059 -0.09937188 -0.14766747 0.069294184 0.29832402 -0.20505717 0.045241784 0.20245595 0.012694952 0.15819654 -0.059608314 0.19990772 0.25616506 0.25929958 -0.13871986 -0.16620576 -0.34493595
adenosine -0.09435084 -0.010619236 0.074138 0.26604688 -0.17119263 -0.13566186 0.050398212 0.31458467 -0.2620034 0.09064943 0.25846285 -0.041027326 0.13474314 -0.055051472 0.2555496 0.20068584 0.36292076 -0.097929 -0.18912105 -0.34628662
systems -0.08009056 -0.004830062 0.06274519 0.23534572 -0.11437268 -0.1050879 0.076818384 0.36258483 -0.23517618 0.0766613 0.2040599 -0.0003499447 0.1634548 -0.08439291 0.30615434 0.22324349 0.38171384 -0.1853832 -0.183352 -0.33854425
magnetic -0.11950714 -0.012123352 0.02822041 0.21607351 -0.14936428 -0.15245233 0.11057099 0.41184762 -0.2136668 0.077438995 0.20310591 0.003511813 0.1288877 -0.04209058 0.3001817 0.27574834 0.31468228 -0.10430984 -0.09976687 -0.35448486
Determination -0.07646677 0.04075498 0.07516533 0.18263493 -0.09170005 -0.12833293 0.0012007857 0.23809889 -0.18250577 0.06415472 0.14938626 -0.029149653 0.15407985 -0.0042713843 0.22122456 0.19158536 0.2287039 -0.08451122 -0.11792737 -0.29720587
microsomal -0.056924768 -0.038174517 0.075511985 0.19480751 -0.14942028 -0.118814394 0.02040417 0.3618484 -0.22158693 0.025951585 0.23960985 -0.013112698 0.16320314 -0.051502988 0.19831008 0.19267274 0.2984164 -0.07894607 -0.16103743 -0.3115952
small -0.08361618 0.04031108 0.01833266 0.18979715 -0.13279274 -0.1063053 0.079190575 0.34794953 -0.23103997 0.11451718 0.19627129 -0.055269938 0.09349672 -0.09420392 0.27032816 0.23187402 0.24733861 -0.10334878 -0.16282916 -0.3475904
specificity -0.060046963 0.016223557 0.055524733 0.24162407 -0.07855993 -0.12837276 0.05983522 0.29840276 -0.15175809 0.10932919 0.15147664 -0.04447213 0.130329 -0.025044179 0.19453521 0.2404292 0.23446575 -0.15512566 -0.15029685 -0.28982195
pulmonary -0.024540754 -0.02222007 0.017380664 0.21693307 -0.13917921 -0.08068187 0.073752664 0.21705186 -0.14793964 0.04638555 0.19328146 -0.052155837 0.08101579 -0.004533702 0.15261781 0.21439148 0.18880238 -0.061291754 -0.11848593 -0.28182733
1975 -0.06169288 -0.009548525 0.025700375 0.13103488 -0.11559419 -0.09209271 0.015377199 0.24407096 -0.087357536 0.036794223 0.10578869 0.0040082936 0.047344547 -0.030894624 0.16044125 0.122832134 0.15740582 -0.121309996 -0.12491538 -0.15128836
kidney -0.087354265 0.0046571405 0.11260886 0.21255745 -0.13978708 -0.13574713 0.019359477 0.32923198 -0.17861266 0.067160554 0.20554122 -0.0029515005 0.13656943 -0.08840339 0.26929173 0.24227217 0.3008248 -0.16136606 -0.19637558 -0.34287933
pH. -0.1171892 0.0039111585 0.0671354 0.20692772 -0.07886322 -0.07896686 0.05260769 0.31638795 -0.18388328 0.11193441 0.25348157 -0.048440058 0.13177606 -0.0809445 0.22434705 0.18757015 0.2751849 -0.16569345 -0.12700671 -0.29222378
gas -0.10340465 -0.0069871778 0.09995529 0.24051742 -0.11053829 -0.13824958 0.08132883 0.42973438 -0.23618838 0.10867377 0.27452427 -0.0983002 0.1656995 -0.09677157 0.23282115 0.30094182 0.39678213 -0.16795109 -0.12894198 -0.39019477
dependence -0.11071719 0.032459736 0.01789622 0.22432259 -0.107113466 -0.16284049 0.106622316 0.40157628 -0.25903523 0.12614554 0.27357864 -0.076021396 0.122920565 -0.12204745 0.27699152 0.28911132 0.32328144 -0.13608758 -0.19332361 -0.37168562
report -0.038660035 -0.04143915 -0.0072400947 0.16149113 -0.12842642 -0.11129879 0.06395581 0.2644888 -0.16553882 0.09180709 0.19124947 -0.002798348 0.07872278 0.0020423245 0.11707143 0.1387306 0.21452305 -0.12265625 -0.14073168 -0.19679622
membranes -0.05240503 -0.018384429 0.03241376 0.24011652 -0.116183996 -0.1569162 0.08767258 0.30935252 -0.17119873 0.08932348 0.25485042 0.004155554 0.17725861 -0.10751588 0.2304876 0.21714526 0.2959876 -0.076397955 -0.10581277 -0.35157242
reductase -0.064725436 0.005259582 0.068590954 0.29199094 -0.17899106 -0.14151978 0.08145622 0.43664798 -0.20409596 0.07885964 0.2154006 -0.0657839 0.21715885 -0.12496794 0.3230772 0.27144426 0.35238144 -0.09634255 -0.104899116 -0.32974198
Clinical -0.042178087 -0.045962404 0.08740952 0.16332684 -0.15993096 -0.15585563 0.06276098 0.3452724 -0.210353 0.058609314 0.19384776 -0.057864152 0.13386299 -0.039145924 0.23966204 0.19889732 0.26391685 -0.131878 -0.14250863 -0.2761699
pancreatic -0.06555781 0.048210576 0.024669198 0.23355795 -0.19587387 -0.1693861 0.08504183 0.36567628 -0.22298062 0.13785276 0.27019742 -0.03854514 0.2165002 -0.04587377 0.26301718 0.23827825 0.3472995 -0.10952489 -0.11955703 -0.3949464
infants -0.046063077 0.02107927 0.08137125 0.2077052 -0.11860054 -0.13022418 0.0036339203 0.37827334 -0.25874722 0.04990215 0.24895748 0.010114748 0.14788662 -0.030719385 0.27274233 0.26903445 0.2897825 -0.10966762 -0.19807677 -0.36078516
containing -0.088750705 -0.033083055 0.09716375 0.2595134 -0.15938775 -0.1796033 0.0431777 0.38647756 -0.19590518 0.124530174 0.21712324 -0.077410035 0.19478106 -0.1269204 0.31557527 0.3127619 0.3158702 -0.108561344 -0.12819993 -0.3956105
glucose -0.10018044 -0.019910932 0.091775596 0.29292598 -0.12251656 -0.17615642 0.08663315 0.35653883 -0.2249106 0.11747103 0.24948528 -0.021066612 0.13054611 -0.043969225 0.23965827 0.25480565 0.36773822 -0.11944877 -0.10994239 -0.37296268
virus -0.070739664 0.038809504 0.033702265 0.23837288 -0.16470756 -0.06335859 0.071553595 0.32774085 -0.15255737 0.09393612 0.18054113 -0.06556534 0.12704322 -0.053126544 0.19411239 0.16784942 0.24021159 -0.07308208 -0.07214672 -0.25522026
mitochondrial -0.13111594 0.011329659 0.016968558 0.2914772 -0.1373282 -0.094542146 0.035121765 0.3623284 -0.20203385 0.10434111 0.20983435 -0.080057785 0.17277053 -0.12080532 0.29304838 0.29048315 0.32204813 -0.17482494 -0.1954629 -0.36191732
relation -0.0572585 0.007205096 0.012026563 0.257715 -0.1639409 -0.083215356 0.085358754 0.3129539 -0.22948399 0.103426345 0.16403303 -0.063858785 0.18553767 -0.10628154 0.17468049 0.18576442 0.3003797 -0.10934491 -0.1558595 -0.311912
cyclase -0.064935386 0.058596957 0.119349875 0.26542443 -0.12684256 -0.12731653 0.071247354 0.40925714 -0.21070595 0.08975304 0.23318435 -0.08103879 0.20765476 -0.111044295 0.27950037 0.255721 0.32479066 -0.17433448 -0.13809429 -0.391244
concentrations -0.16078952 -0.00875176 0.093967184 0.31616893 -0.15950796 -0.11646391 0.030659668 0.39370236 -0.28021133 0.064127244 0.30497456 -0.09934179 0.14354527 -0.1352322 0.3419779 0.27467 0.38089353 -0.1908987 -0.17950568 -0.3963267
complexes -0.08872276 -0.032875046 0.015424922 0.19681427 -0.15339045 -0.09098519 0.037893616 0.3084576 -0.15623036 0.09038232 0.1396269 -0.070375375 0.14886723 -0.048550174 0.15951975 0.17452458 0.28635925 -0.14606297 -0.12099525 -0.24901353
insufficiency -0.08940672 0.053937376 0.04098264 0.16461664 -0.15892449 -0.15462048 0.0074434937 0.26248282 -0.20008962 0.063409224 0.19080834 -0.06069791 0.14212738 -0.040289212 0.25234297 0.18004173 0.28928417 -0.0780444 -0.13676336 -0.31801924
nucleotides -0.110697754 -0.032349583 0.08492896 0.26377013 -0.077356845 -0.15044628 0.081977785 0.33819914 -0.1518639 0.03216024 0.20177765 -0.07131839 0.09001714 -0.051832687 0.26618406 0.25025398 0.24106811 -0.105040945 -0.1469132 -0.24578947
nodosa -0.1179906 0.051725138 0.005516718 0.13258915 -0.09050468 -0.088956706 -0.001464132 0.24331126 -0.14272033 0.029266136 0.18995914 -0.010908903 0.15167515 -0.011664688 0.13766415 0.19565198 0.2510498 -0.065554485 -0.072559394 -0.25466534
intestinal -0.081871234 0.017484182 0.058183696 0.2134801 -0.13232183 -0.10564055 0.010818073 0.40033922 -0.19303212 0.08495315 0.21314225 -0.04047926 0.18928607 -0.046384852 0.22175846 0.28889635 0.31770346 -0.1814783 -0.0937604 -0.3095729
III -0.08611792 0.045670994 0.029606786 0.2581666 -0.17328483 -0.16599795 0.05860923 0.4208111 -0.29514104 0.10797351 0.2830337 -0.047362924 0.21223275 -0.07189129 0.32857135 0.27534273 0.41710603 -0.16968502 -0.15369785 -0.41016382
interactions -0.034954656 0.01624649 0.041116353 0.20070729 -0.12926304 -0.031689733 0.0412737 0.21776843 -0.15201285 0.007254876 0.13884157 -0.013121608 0.13066654 -0.001873887 0.114023596 0.20210057 0.1619786 -0.06883684 -0.052048914 -0.23083824
produced -0.13482097 -0.040603805 0.062016282 0.23269488 -0.18020737 -0.10685414 0.07153367 0.36346653 -0.17890628 0.09569771 0.17415439 -0.009070365 0.17188808 -0.11139543 0.22472112 0.23829658 0.30370063 -0.13667043 -0.16484565 -0.32387328
metal -0.08450184 0.0030093924 0.065486856 0.26453975 -0.16262153 -0.1703654 0.112828575 0.31689978 -0.22592688 0.08165187 0.2022898 -0.03172419 0.20233051 -0.08071414 0.30200186 0.25740245 0.3030084 -0.15739726 -0.14854826 -0.31261438
level -0.04917657 0.0364769 0.018483823 0.1658583 -0.079324745 -0.09278506 0.075146034 0.29785487 -0.13098729 0.025500966 0.24229826 -0.078523755 0.1192939 -0.026350971 0.15589501 0.22154577 0.22887175 -0.14340629 -0.105493516 -0.26641133
status -0.100157 0.043936238 0.011863438 0.2071674 -0.074252024 -0.10347658 0.01371676 0.3191063 -0.20480926 0.07265846 0.21286355 0.005526613 0.17123196 -0.08341127 0.2603668 0.18295114 0.31171274 -0.1557451 -0.16282864 -0.29425457
Study -0.11592629 -0.013207917 0.040984645 0.16857755 -0.14894189 -0.12331218 0.0076982346 0.25259757 -0.12006758 0.06127368 0.21475697 -0.048954684 0.15345785 -0.020279877 0.22009848 0.17795914 0.22566746 -0.086405106 -0.15303612 -0.19381924
transpeptidase -0.099706866 0.04212235 0.058647532 0.21118465 -0.12280355 -0.15578668 0.05634861 0.3030571 -0.21699587 0.049214065 0.17318994 -0.05812613 0.1487552 -0.04918664 0.22277509 0.16738226 0.23215188 -0.08287862 -0.0788033 -0.24561638
man -0.06255906 -0.032748733 0.08722313 0.16822997 -0.15530826 -0.06122626 0.0337055 0.24729402 -0.1871195 0.098763965 0.17573327 -0.012400675 0.12927727 -0.038530942 0.20725554 0.15692426 0.24673025 -0.06520493 -0.112055264 -0.30674633
improved -0.05229309 0.046438076 0.090402275 0.21865718 -0.17034994 -0.1318361 0.080934085 0.2861252 -0.13718604 0.024573425 0.1663282 -0.06177916 0.16996832 -0.103471175 0.2628032 0.16891214 0.30719644 -0.10500539 -0.12607914 -0.2544475
phosphate -0.08190336 0.009499544 0.085779846 0.28924516 -0.13193484 -0.088884294 0.056262255 0.34147787 -0.24390611 0.07820712 0.20963156 -0.05090811 0.2094852 -0.099680774 0.2872773 0.28480828 0.33923283 -0.13586988 -0.123932876 -0.39059773
5-hydroxytryptamine -0.09140907 0.049972698 0.044474743 0.21766171 -0.19246711 -0.17620647 0.08437522 0.40412965 -0.18095547 0.079711646 0.25390172 -0.026167607 0.11777942 -0.12168955 0.28273442 0.22138447 0.31939876 -0.1626489 -0.12549675 -0.37215167
multiple -0.029072495 0.005984717 0.018975481 0.17612343 -0.100837894 -0.12491811 0.08541189 0.32610795 -0.140975 0.027187478 0.15158407 -0.03523125 0.1222831 -0.08174022 0.23701634 0.225166 0.23497596 -0.0939367 -0.08641165 -0.25511098
pneumococcal -0.053799354 -0.00079905713 0.02381626 0.25437298 -0.18912265 -0.0845862 0.016052444 0.38333732 -0.24131872 0.10199701 0.27128893 -0.08487346 0.14781244 -0.06799428 0.28790846 0.28945515 0.33243474 -0.14782137 -0.19643769 -0.33286852
pressure -0.149006 0.015439643 0.04335898 0.21037076 -0.11067191 -0.13283348 0.009643903 0.32694796 -0.2141402 0.05132551 0.2660475 -0.028617296 0.18046172 -0.10319537 0.29995757 0.20847954 0.37671053 -0.14063887 -0.15334903 -0.3330038
lung -0.104776904 -0.01611926 0.037337918 0.18590078 -0.12554261 -0.1423166 0.07615359 0.27421734 -0.20786954 0.031017348 0.16298798 -0.038738918 0.10292603 -0.09055769 0.23798884 0.21050371 0.30674595 -0.08020293 -0.17806083 -0.26599178
biosynthesis -0.1180612 0.04007477 0.08311512 0.2280752 -0.14785925 -0.07949274 0.005061783 0.26646313 -0.18595833 0.021358157 0.20404384 -0.008659135 0.098599985 -0.09205077 0.207994 0.17174469 0.20060386 -0.12668055 -0.12390085 -0.21868397
hormone -0.136053 0.043280773 0.09425521 0.2142872 -0.14358583 -0.14209864 0.07176172 0.34903434 -0.22184885 0.034010816 0.2665091 -0.09754786 0.11822363 -0.06783765 0.2610256 0.24338612 0.32072374 -0.11794344 -0.13324398 -0.2992743
marrow -0.11333181 -0.029884508 0.0098769 0.2679601 -0.11691467 -0.14374736 0.09082287 0.37890795 -0.14970388 0.04041807 0.18558267 -0.046371505 0.1073839 -0.04273856 0.25900173 0.19504061 0.3364014 -0.16521916 -0.100131825 -0.3364531
surgical -0.049317583 -0.01632329 0.04792084 0.17816228 -0.08636688 -0.09905888 -0.007908837 0.22313415 -0.09811108 0.08088717 0.11205576 -0.0735573 0.12619866 -0.064504065 0.16735211 0.18570794 0.16685084 -0.06974047 -0.10258836 -0.231473
nucleotide -0.09818305 0.0020565232 0.0021052493 0.15434805 -0.103732765 -0.048680153 0.047641397 0.2744151 -0.117525324 0.03762676 0.12859827 0.021856418 0.14001764 -0.09272121 0.18998143 0.20957765 0.26156193 -0.12693188 -0.10600478 -0.21885303
Studies -0.06223485 -0.0050753844 0.022656802 0.20819408 -0.06373383 -0.09502859 0.015486403 0.23208542 -0.17413583 0.079365574 0.17359401 -0.04201477 0.07392286 -0.058135897 0.21393505 0.21207812 0.25295746 -0.11210918 -0.05682944 -0.24071723
related -0.08059549 0.03782406 0.013221395 0.23271425 -0.069522 -0.088453494 0.06610435 0.3184229 -0.1816199 0.028907638 0.20335735 -0.031235099 0.09697482 -0.049934506 0.23253846 0.16982938 0.27996036 -0.070435025 -0.1628561 -0.26643434
combination -0.14167951 -0.03706846 0.09273235 0.1903162 -0.1356437 -0.16170973 0.01420988 0.29874316 -0.19090782 0.086966276 0.17713836 -0.07657044 0.13127986 -0.0773118 0.20345801 0.20879416 0.3181129 -0.11071135 -0.09908304 -0.2900718
aminotransferase -0.10304218 0.018679272 0.10616726 0.23832662 -0.11411053 -0.108343646 0.009835642 0.36194664 -0.16549407 0.077338636 0.2675203 -0.06486491 0.16188817 -0.10970865 0.18593198 0.24096228 0.3205702 -0.08971519 -0.18035257 -0.29297057
general -0.078103945 0.024177251 0.049103756 0.24282716 -0.08654242 -0.15170062 0.003710804 0.3475523 -0.18835402 0.027539575 0.18389353 -0.030119536 0.18168478 -0.07246927 0.2126566 0.1804226 0.24186099 -0.110602506 -0.1258353 -0.33563566
bone -0.08384702 -0.043961268 0.031169068 0.23688264 -0.11662938 -0.07037057 0.092970766 0.3088954 -0.15697885 0.10207757 0.24770434 0.015510421 0.16028418 -0.036553845 0.2511494 0.20853952 0.24886626 -0.07741883 -0.12106166 -0.32103693
investigations -0.07556356 -0.019481068 0.087143846 0.18758787 -0.071755216 -0.054822497 0.08381757 0.22850038 -0.17619428 0.03624575 0.14397338 -0.077385165 0.105388224 -0.09137397 0.22656272 0.16050489 0.19380413 -0.13645953 -0.12060949 -0.28271428
without -0.073761925 0.03136365 0.031031217 0.22912355 -0.115852185 -0.13298148 0.030723825 0.25952157 -0.19628018 0.017171808 0.16143335 -0.039644547 0.14880218 -0.092858635 0.1663911 0.19870757 0.24032196 -0.08310676 -0.120738745 -0.24271521
simple -0.05186375 -0.033916924 0.075392194 0.25003782 -0.13161102 -0.079662986 0.026772574 0.30400765 -0.22613339 0.12612835 0.17229782 -0.053095043 0.14216319 -0.09175441 0.27724236 0.18981777 0.25789648 -0.07426044 -0.17469147 -0.25850937
affecting -0.11649435 0.03906659 0.059660178 0.20392624 -0.16098134 -0.14529903 0.089959174 0.3553318 -0.18382797 0.109725825 0.23133388 -0.02430821 0.16131951 -0.11607942 0.27317405 0.1793448 0.2792498 -0.114965774 -0.10504244 -0.35321364
intracellular -0.07128974 0.035584405 0.0063236933 0.24268171 -0.13318428 -0.05035006 0.014301541 0.31269464 -0.117094375 0.016276455 0.18427522 -0.07284221 0.16552304 -0.0061066286 0.16500728 0.19967458 0.2403607 -0.14651394 -0.11177007 -0.31353283
coli. -0.075380124 -0.03701161 0.07489376 0.24756879 -0.12481521 -0.12843196 0.007994564 0.3305326 -0.15936457 0.11702851 0.21168926 -0.0418844 0.14761327 -0.020116976 0.25824764 0.24863453 0.2241357 -0.14974354 -0.07611291 -0.31139565
receptors -0.061023537 0.045926873 0.031608794 0.21657528 -0.14258224 -0.05834424 0.07301191 0.28082266 -0.19502932 0.10985581 0.21670203 -0.037865117 0.14160353 -0.024162339 0.17753431 0.21302234 0.22283226 -0.10983589 -0.113203675 -0.2747192
rate -0.09028098 -0.03398007 0.06755155 0.2528347 -0.0928681 -0.07488118 0.024675231 0.31800562 -0.20311938 0.036581952 0.24479657 -0.0060584964 0.10385758 -0.09222317 0.24510807 0.22067203 0.3045213 -0.14676721 -0.12635954 -0.28380305
pharmacological -0.082238704 0.0148763815 0.016998103 0.22359435 -0.12210778 -0.06330049 0.04305271 0.3357065 -0.17291294 0.093507014 0.15430944 -0.079959705 0.12364242 -0.07210809 0.25390935 0.22339661 0.23422693 -0.069759466 -0.11580277 -0.32473782
reduction -0.051224213 -0.0035599067 -0.0051062135 0.22392179 -0.06525676 -0.04728762 0.045988098 0.30578125 -0.13008289 0.026333204 0.22114806 -0.04725306 0.06757138 -0.010184821 0.1578294 0.22819752 0.20042475 -0.0515473 -0.14087291 -0.22855204
solutions -0.04224072 0.0240971 0.04123105 0.1903106 -0.16778757 -0.08742631 0.0901993 0.2888435 -0.15275463 0.109114885 0.15849814 -0.02491919 0.103212275 -0.08242061 0.22341153 0.1829892 0.2554528 -0.15433633 -0.16178426 -0.32856503
symposium -0.013725593 0.05013734 0.03947864 0.14797458 -0.059088364 -0.07306667 -0.009326529 0.20411424 -0.13136153 0.094371416 0.17199628 0.02422595 0.14029999 -0.047909185 0.2093767 0.21206492 0.2571443 -0.041737646 -0.14174204 -0.2077422
canine -0.12553233 -0.031300317 0.0040693986 0.21947563 -0.114876166 -0.13313217 0.08066087 0.33301517 -0.14736068 0.10497047 0.1676289 -0.064610496 0.14753264 -0.07355463 0.1661242 0.22417042 0.24405253 -0.13458131 -0.10609531 -0.24009654
forms -0.0727489 0.011642762 0.10942979 0.2649602 -0.109919965 -0.1314104 0.07680398 0.40121242 -0.26710466 0.11471793 0.25259888 -0.012017641 0.15305784 -0.08823549 0.22835757 0.24008912 0.3224013 -0.16158707 -0.14109096 -0.31252304
management -0.049185954 -0.034144126 0.0040214504 0.1617625 -0.08115445 -0.14035624 0.073803715 0.27480125 -0.16252233 0.10619583 0.20955281 -0.029073808 0.13883665 -0.099131085 0.13366738 0.16351934 0.28225693 -0.083633274 -0.07710612 -0.2818585
form -0.06884323 0.006724528 0.046159923 0.20164013 -0.098594286 -0.16251674 0.07987127 0.3548263 -0.20121321 0.05503123 0.17184897 -0.06698193 0.11821259 -0.043742068 0.20052409 0.22184937 0.2451348 -0.13972113 -0.13310762 -0.3429945
stability -0.046878673 0.05175711 0.0617404 0.17053618 -0.11667558 -0.08670853 0.048823606 0.24989367 -0.092280336 0.053349886 0.19095242 0.0022885634 0.12036722 -0.013116886 0.14146566 0.14417316 0.24766657 -0.042618796 -0.07674968 -0.24466668
specific -0.058371577 0.021011855 0.054478962 0.27284148 -0.105691046 -0.09642126 0.05592255 0.28545055 -0.20634589 0.08885133 0.18774286 -0.0022982836 0.18324979 -0.11016858 0.20217088 0.19922449 0.29621896 -0.13168748 -0.1445868 -0.32246536
phosphatase -0.069243565 0.054186504 0.026865983 0.16236344 -0.1017442 -0.14477113 0.08703862 0.3201633 -0.21878155 0.029884383 0.15264553 -0.021180453 0.14438954 -0.040010177 0.20308839 0.2177107 0.29565844 -0.12408248 -0.16561432 -0.28846464
drugs. -0.059287697 -0.010808022 0.039259158 0.17686231 -0.068539135 -0.11249762 0.09247713 0.25964442 -0.20691001 0.034219436 0.15710725 -0.026457258 0.14751075 -0.043456037 0.23806418 0.19627886 0.27795306 -0.10400755 -0.12186528 -0.22585951
soluble -0.0867973 0.047989007 0.012682791 0.18203032 -0.12867406 -0.12906758 0.0446439 0.33031452 -0.21778813 0.034762688 0.2589845 -0.0590631 0.13407135 -0.07385972 0.22656295 0.18537287 0.29123116 -0.13145378 -0.089936875 -0.35392365
content -0.121166855 -0.000822887 0.0720797 0.1966506 -0.15671249 -0.1564308 0.08356723 0.28688848 -0.20894511 0.08022074 0.22333194 -0.08801123 0.19286829 -0.074655 0.2317242 0.18339698 0.25506264 -0.10493996 -0.11474455 -0.29855037
acid-base -0.051445022 -0.030532759 0.03540202 0.18062861 -0.11733016 -0.0799741 0.056340545 0.24555215 -0.14809197 0.09987665 0.15584728 -0.015541016 0.102294974 -0.009696406 0.21499467 0.20993012 0.2527326 -0.15309444 -0.07049051 -0.27988037
nerve -0.07526175 0.025198214 0.022721734 0.26119825 -0.13520718 -0.14678316 0.11441665 0.35587066 -0.25849485 0.109846205 0.23234227 -0.08032144 0.17923635 -0.05123587 0.23614407 0.24379593 0.3079312 -0.13701196 -0.17476694 -0.32091257
behavior -0.06503279 0.014324035 0.024368603 0.20490186 -0.096395105 -0.12549306 0.0043466142 0.24625131 -0.105554774 0.07566757 0.13352138 -0.060453955 0.058378298 -0.030675298 0.12096229 0.1845465 0.23097003 -0.096328884 -0.15086336 -0.20166655
surface -0.07363726 -0.046009876 0.00553669 0.2214361 -0.0920535 -0.134238 0.039626848 0.28451562 -0.1936573 0.025094882 0.16247015 -0.079899855 0.11881838 -0.038866986 0.22371028 0.18195717 0.24287952 -0.07436624 -0.1257124 -0.20692308
alcohol -0.06227343 0.0013015838 -0.014916762 0.1500897 -0.046035968 -0.06567782 -0.0042775953 0.20382753 -0.1561011 0.08036316 0.11067772 0.0022413922 0.066731185 -0.080992095 0.11518125 0.16949691 0.15481874 -0.11204031 -0.12230779 -0.22643812
neurotransmitter -0.09757379 0.010656494 0.08145335 0.18139954 -0.1330368 -0.093046725 0.07601129 0.2492382 -0.1863199 0.08884116 0.21211238 -0.073422514 0.16041593 -0.10561389 0.1541259 0.16380468 0.25807312 -0.103280514 -0.09367662 -0.22272238
therapeutic -0.06592649 -0.010363616 0.022476796 0.17318521 -0.11971578 -0.058078773 0.016039368 0.33146513 -0.15791102 0.05408703 0.16993277 -0.06436498 0.11238152 -0.101048514 0.24970128 0.17595056 0.26395285 -0.09763441 -0.12515418 -0.33700094
due -0.09737354 0.021582546 0.05516277 0.16617946 -0.10369857 -0.077657945 0.048982125 0.24438393 -0.1232501 0.020531027 0.2023702 -0.07944059 0.104119554 -0.015740605 0.1568765 0.21310803 0.26182854 -0.1341633 -0.10704839 -0.26841587
central -0.11949973 -0.0018434725 0.08205717 0.23697995 -0.13058908 -0.112705685 0.01693671 0.28184783 -0.14565843 0.014606749 0.19558837 -0.077404514 0.12477524 -0.036029015 0.16566804 0.1962146 0.23786928 -0.15093695 -0.11985656 -0.23974156
blockade -0.15076502 -0.024098136 0.060100976 0.2964339 -0.13240181 -0.081269786 0.025002731 0.41268462 -0.24154492 0.051519968 0.19900766 -0.03757894 0.14767855 -0.038239196 0.25054148 0.26578793 0.36267218 -0.183081 -0.15647629 -0.37415516
relationships -0.10900369 0.021905946 0.047512945 0.14318462 -0.10009549 -0.11579295 0.024144871 0.23848233 -0.0955998 0.090841115 0.13241336 -0.007940689 0.08770673 -0.07108546 0.14437023 0.12807278 0.22530597 -0.13006052 -0.1303096 -0.24242756
author'stransl -0.024721075 0.01013843 0.061994605 0.18193202 -0.11316307 -0.09922955 0.0721399 0.23111427 -0.09506255 0.095458165 0.18161558 -0.036494937 0.09648443 -0.01435707 0.18753959 0.19309296 0.14540589 -0.103563264 -0.057224065 -0.19038394
weight -0.110401474 0.05072546 0.10008454 0.20772214 -0.14959086 -0.17730229 0.10793444 0.37758145 -0.22968242 0.09582357 0.27779815 -0.0035444617 0.19471444 -0.06367012 0.2657261 0.2922976 0.33351237 -0.1352163 -0.19763821 -0.3385981
strain -0.11278586 0.037504252 0.010234943 0.16005479 -0.09172697 -0.09485034 -0.0028075601 0.26619884 -0.1748253 0.014896588 0.18257129 -0.032366257 0.1383063 -0.08653653 0.17138638 0.16670997 0.25224653 -0.14125404 -0.06808918 -0.27675372
host -0.1182027 0.01025628 0.034910876 0.16750526 -0.1303328 -0.074916236 0.00011927924 0.2799067 -0.13989079 0.060775165 0.175216 0.0044919783 0.06962492 -0.099763185 0.21099244 0.23197751 0.20577338 -0.14374895 -0.113432184 -0.29801643
brain. -0.069818735 0.051824547 0.013901176 0.1483958 -0.059319466 -0.097721875 0.02852589 0.2600834 -0.20440476 0.03981983 0.15978298 -0.033485573 0.12422655 -0.017657606 0.22036946 0.17635277 0.19460888 -0.090160824 -0.14490822 -0.21118066
lysosomal -0.045127396 -0.00211129 0.07163987 0.13018505 -0.10279836 -0.07955338 0.08056834 0.2487784 -0.118358135 0.07376044 0.12530775 0.02396281 0.05961269 -0.05943675 0.1215245 0.19567907 0.17736539 -0.091222 -0.053048387 -0.2548265
protease -0.06862144 0.01832315 0.0022759365 0.17507029 -0.06645048 -0.09371982 0.0601898 0.22816943 -0.10751004 0.07947223 0.08921373 -0.040205862 0.1322127 -0.009832823 0.13782448 0.113361284 0.18824129 -0.059275392 -0.03282127 -0.17693904
syndrome -0.010445503 -0.02812921 -0.0078065246 0.12555814 -0.06353029 -0.080823734 0.061401065 0.15189491 -0.15335561 0.08359675 0.1605129 -0.042357218 0.06826769 -0.05828111 0.13606563 0.18408732 0.1856304 -0.08152724 -0.09435495 -0.1963862
neurons -0.115136944 0.03620258 -0.006048167 0.14830069 -0.12722878 -0.035370406 0.068606585 0.23086457 -0.118246906 0.042749494 0.203671 -0.04413278 0.12736025 -0.066602126 0.21305676 0.21163698 0.24244626 -0.08830075 -0.105165005 -0.26472095
insulin -0.037447967 -0.035916843 0.016087107 0.23176877 -0.124342896 -0.061000716 0.006284972 0.3373729 -0.1603714 0.026322816 0.21213655 -0.060264938 0.1613605 -0.025425546 0.16044651 0.23457663 0.29045904 -0.07733516 -0.15433377 -0.3098941
strains -0.14404517 0.032755762 0.03732566 0.2605814 -0.106511876 -0.077711634 0.06850238 0.33370796 -0.1888005 0.096854046 0.17460443 -0.0681302 0.14499359 -0.040873192 0.23629402 0.1860904 0.29926324 -0.093165435 -0.10238736 -0.3036972
hydrogen -0.11251045 -0.012219861 0.041986253 0.17623132 -0.1592595 -0.11016956 0.06417305 0.3278296 -0.16093352 0.117634274 0.16468391 0.012781757 0.1185994 -0.058455896 0.18976189 0.18796535 0.26518938 -0.15091728 -0.07941689 -0.26578236
ATP -0.10572731 0.015164537 0.094869904 0.19811952 -0.10876651 -0.11396419 0.06842063 0.31975335 -0.24215983 0.10677273 0.2089558 -0.080906205 0.14675722 -0.09557638 0.26479128 0.18891627 0.28634053 -0.12598352 -0.1565723 -0.3225401
adenylate -0.05180027 0.016506083 -0.001250662 0.20496807 -0.16429777 -0.12340853 0.07885578 0.3250723 -0.2084231 0.07870701 0.22935574 -0.07730652 0.11620348 -0.07282012 0.1587627 0.21910778 0.3105386 -0.106723614 -0.10775262 -0.2907739
carbon -0.0900943 -0.029729635 0.047227614 0.23762113 -0.101968795 -0.10309234 0.095287174 0.30946836 -0.21446118 0.10845304 0.24697739 -0.08065298 0.16902246 -0.09808102 0.20155637 0.22987649 0.23929341 -0.15210609 -0.15591452 -0.33185223
part -0.05603267 0.049514454 0.028056866 0.008405069 0.012180202 0.009763505 0.05341973 0.12643325 -0.08834235 0.009086621 0.061136715 0.0039797025 0.058831662 -0.054751564 0.07826853 0.10465063 0.025282128 0.010604301 -0.014969123 -0.09547744
association -0.082181506 -0.03953707 0.0031721678 0.19987334 -0.11573654 -0.038247384 0.0044149924 0.21671785 -0.118290275 0.09940718 0.1842489 0.0075988607 0.14687835 -0.07875296 0.22049867 0.14614522 0.21656029 -0.12370048 -0.07324592 -0.26231563
dissociation -0.06593317 -0.0017204947 0.040246777 0.15738557 -0.13368678 -0.116115905 0.05073411 0.28248036 -0.17947282 0.07680869 0.15010796 0.018798199 0.11893055 -0.09415762 0.17977121 0.22881933 0.24287206 -0.12702501 -0.15080582 -0.29081756
purified -0.10883312 0.0452315 0.017015425 0.22593765 -0.13025469 -0.09691001 0.014804993 0.3672034 -0.20583801 0.099962056 0.16649875 -0.009575408 0.09852498 -0.08328461 0.22056893 0.2065689 0.29262578 -0.11740696 -0.107804425 -0.31923917
ofthe -0.106067225 -0.02454119 0.09011688 0.22694606 -0.065104835 -0.07481083 0.030037632 0.34229296 -0.20842202 0.08499304 0.17917892 -0.035422202 0.14999776 -0.07158239 0.18138191 0.19531207 0.27119327 -0.079528585 -0.14655119 -0.2570969
organic -0.10956668 -0.03541699 0.025247395 0.21337911 -0.07005698 -0.06458278 0.09472254 0.33923578 -0.19027103 0.05982606 0.24343847 -0.005407611 0.1641172 -0.025187973 0.21961449 0.22460043 0.23152785 -0.07221986 -0.07557219 -0.32063985
enzymatic -0.07984728 0.05054734 0.07177963 0.23914789 -0.075765185 -0.11332289 0.09882691 0.328298 -0.18280883 0.0684574 0.24428773 -0.0025797123 0.095326066 -0.0776453 0.18752171 0.21823089 0.2705238 -0.15580717 -0.10792645 -0.22975549
tissues -0.093684085 0.029456956 0.07298999 0.28700504 -0.097446926 -0.10883872 0.051967837 0.37709364 -0.2476981 0.12863657 0.21220925 0.010477006 0.11220256 -0.08487775 0.29481786 0.227262 0.31600356 -0.111806236 -0.096484475 -0.33909002
means -0.12512985 0.05420216 0.008929844 0.23025669 -0.09610249 -0.15616676 0.02690512 0.28048822 -0.1900302 0.09846 0.16869406 -0.055387463 0.18422374 -0.087405026 0.24095634 0.24387214 0.27661112 -0.14944765 -0.08986738 -0.32070425
inactivation -0.044142824 -0.007018376 0.06743742 0.24832845 -0.11959153 -0.0944795 0.025045497 0.35778823 -0.19186382 0.049865738 0.23241831 0.014993969 0.11178269 -0.05866091 0.23973946 0.20389846 0.29005423 -0.07232239 -0.087593615 -0.3335874
gamma-glutamyl -0.099477306 0.05199089 0.043765083 0.14552197 -0.11884535 -0.13844694 0.05165567 0.29764315 -0.18980779 0.045029186 0.23164739 -0.012337745 0.14194536 -0.048926357 0.2398506 0.17236209 0.29647478 -0.11615255 -0.15363538 -0.3239344
Bacillus -0.079699226 0.048232157 0.05217082 0.122895144 -0.0844863 -0.10365056 0.022408195 0.28397414 -0.11053259 0.0567867 0.16997597 -0.021942902 0.054189254 -0.032603066 0.20884636 0.1893726 0.22958782 -0.10985658 -0.08470583 -0.26476792
red -0.06516318 0.01712917 0.04011307 0.1887174 -0.09558207 -0.09263551 0.05669919 0.33303452 -0.14819068 0.0747921 0.17429121 -0.06769782 0.07889894 -0.07281532 0.21937816 0.23985106 0.2650818 -0.13503306 -0.09440951 -0.29192343
bacteria -0.07280304 0.052268945 0.08301054 0.16718823 -0.12287075 -0.06225086 0.09052949 0.29140943 -0.1524435 0.09484081 0.20998101 -0.0722891 0.15603107 -0.053197656 0.14336982 0.18938945 0.27190125 -0.1287006 -0.06457216 -0.26550066
lactate -0.12915751 0.029930871 0.02298868 0.23247832 -0.08012589 -0.058710724 0.079224825 0.25939408 -0.1574233 0.025955843 0.19363542 0.015271091 0.11116515 -0.041093424 0.18288203 0.1732133 0.31411487 -0.09853973 -0.08332521 -0.26837215
potassium -0.07720223 0.022346875 0.0047479062 0.23019066 -0.13130009 -0.07285702 0.020971013 0.2879953 -0.14410985 0.05366239 0.14418402 -0.06504963 0.07476694 -0.0073857475 0.1763975 0.19315162 0.21116012 -0.13238375 -0.13689102 -0.25191823
direct -0.055124566 0.024706973 0.10079854 0.20274553 -0.06127126 -0.059146885 0.0607656 0.29387426 -0.20411989 0.0542819 0.21499701 -0.0746257 0.13489184 -0.0925923 0.2422873 0.19736092 0.2570364 -0.1322805 -0.0815774 -0.304636
partial -0.111728236 0.038758624 0.026708547 0.176926 -0.07143558 -0.06848764 0.07698102 0.2942245 -0.120640986 0.019562848 0.19604951 0.017949186 0.09083269 -0.043446034 0.16556144 0.16433083 0.27767152 -0.101738796 -0.08471695 -0.27175102
study. -0.01756358 -0.016365888 0.0034114027 0.121076785 -0.014295988 -0.08739472 0.04679304 0.156822 -0.13249975 0.01716019 0.06406353 0.00929557 0.060850512 -0.060551614 0.116520315 0.13474657 0.19362192 -0.112485416 -0.069752544 -0.15932877
pyruvate -0.100068174 0.0030503317 0.08931651 0.18680112 -0.06338203 -0.10198899 0.042692445 0.32975975 -0.13231894 0.070223846 0.18977797 -0.00032972425 0.110165246 -0.03208778 0.20266354 0.17224407 0.29366964 -0.13250072 -0.10726803 -0.30824304
conformational -0.05320396 0.030091148 0.06422262 0.116776764 -0.11681075 -0.043737326 0.059835576 0.24173999 -0.16699402 0.049419176 0.10372457 -0.020192092 0.07807015 -0.043715913 0.18431239 0.17289123 0.1691284 -0.08205162 -0.12845162 -0.23739602
solution. -0.05503559 0.043975994 0.0053076306 0.17002586 -0.046716273 -0.026965262 0.072866574 0.18658078 -0.1132704 0.09723138 0.1692133 -0.0161047 0.09376136 -0.030285422 0.17830497 0.20028263 0.18542594 -0.13008113 -0.059538286 -0.24758881
aqueous -0.09789412 0.012254264 0.049550302 0.20374386 -0.12141346 -0.16499946 0.06458019 0.30430752 -0.22251044 0.10039915 0.21922061 -0.017127732 0.15052424 -0.1124358 0.2790118 0.20830241 0.28374624 -0.08648548 -0.13144971 -0.2907361
basis -0.07950614 0.018676568 0.08946007 0.2645734 -0.12352034 -0.13229024 0.07774073 0.2771802 -0.14247638 0.08762127 0.23996808 -0.019961342 0.13407043 -0.05985178 0.20060356 0.26682958 0.31379098 -0.10068154 -0.15501569 -0.34502345
nuclear -0.04851342 0.02196399 0.030195072 0.15786548 -0.13454168 -0.10290281 0.004590499 0.30931762 -0.16365369 0.018048273 0.19783162 -0.06893153 0.10869171 -0.06629273 0.15719235 0.19676591 0.23381618 -0.14855036 -0.11101933 -0.27634546
fetal -0.03288888 0.04992592 0.011561353 0.13604622 -0.062402878 -0.068311706 0.07913598 0.25567922 -0.18218209 0.040609222 0.13364317 -0.000992138 0.10269766 -0.010888051 0.15852544 0.23470475 0.22319365 -0.059714876 -0.13848987 -0.29547343
disease. -0.030572414 -0.042085372 -0.0060703554 0.18906261 -0.14318337 -0.061250724 0.060636666 0.20523714 -0.12569278 0.062128965 0.19886123 -0.0115507115 0.07970131 -0.060155835 0.20104796 0.13347106 0.26393947 -0.10699573 -0.12143744 -0.25122786
collagen -0.06604923 -0.048724763 0.059751663 0.17151618 -0.06313985 -0.12946261 0.006170448 0.30117816 -0.11909696 0.07990312 0.16845374 -0.013976543 0.07967454 -0.075882666 0.17334644 0.20627624 0.2211849 -0.14700522 -0.14762066 -0.24020511
immobilized -0.05558379 0.049097512 0.05166314 0.19377069 -0.075195804 -0.064941265 0.015018493 0.25324106 -0.14153866 0.08483543 0.12766553 -0.0303491 0.1267389 -0.07350445 0.12541619 0.19990836 0.21793257 -0.09011107 -0.131395 -0.18970881
functional -0.099853724 0.012917463 0.059246857 0.25501633 -0.11552717 -0.18163125 0.07334582 0.3416989 -0.16335884 0.111705236 0.21158628 -0.051604684 0.13744214 -0.032086387 0.3060804 0.27141586 0.3824618 -0.16023086 -0.13126384 -0.37564674
value -0.12754387 -0.01958533 0.04221413 0.15997405 -0.12965551 -0.09667929 0.04447626 0.23795316 -0.12751828 0.072688445 0.1330512 -0.04365809 0.08405084 -0.018474746 0.18784611 0.23154381 0.27776763 -0.12146363 -0.15455376 -0.2911772
storage -0.025034022 -0.0029367944 0.04039179 0.17184058 -0.1368094 -0.06836642 -0.0013912224 0.2969452 -0.18932365 0.09852337 0.15338434 -0.039802548 0.09692493 -0.04330334 0.18606055 0.1821451 0.22205384 -0.05652982 -0.13845569 -0.27261025
muscle. -0.07770412 0.032747984 0.01550184 0.07716476 -0.03256965 -0.09194907 0.0390881 0.19428465 -0.04899156 0.020024512 0.10768571 0.007650235 0.11437173 -0.044025443 0.10627733 0.08001881 0.117335886 -0.05364497 -0.04619314 -0.16713077
glutamate -0.07642676 -0.01630868 0.030121062 0.17741479 -0.0836453 -0.09318552 0.04413669 0.37267506 -0.17677717 0.025904534 0.16876069 -0.060314685 0.102214694 -0.030038275 0.25223014 0.24364224 0.28863513 -0.16382682 -0.09723144 -0.33357477
failure -0.09500879 -0.024592005 0.036868364 0.14107014 -0.093426965 -0.13724616 0.08194491 0.23779126 -0.19297585 0.06317505 0.14351623 -0.006801728 0.10406622 -0.056664217 0.23380293 0.20864636 0.24736525 -0.066515334 -0.1134147 -0.23855345
patient -0.04094784 -0.036748096 0.053465996 0.12654155 -0.10680146 -0.045426212 0.030186292 0.22864284 -0.13343039 0.09665079 0.20060447 -0.06435197 0.14922884 -0.01030992 0.1505636 0.1718435 0.22814277 -0.14465897 -0.11551773 -0.18938848
species. -0.08404237 -0.034706615 0.018502053 0.11386809 -0.08402105 -0.055479523 0.047260176 0.22408174 -0.091286354 0.011187207 0.13353796 -0.07483802 0.1535526 -0.058471452 0.13771865 0.12582794 0.25693253 -0.10478357 -0.12591442 -0.2069583
regional -0.09785188 0.045311306 0.06704523 0.12937726 -0.10126251 -0.07195174 -0.013849588 0.24459338 -0.1105663 0.08244941 0.10275428 -0.027917981 0.06480493 -0.016070899 0.20601165 0.15241425 0.16225918 -0.057737473 -0.09303501 -0.19484067
sympathetic -0.12643692 0.0017090917 0.043828096 0.25915283 -0.16594896 -0.13209867 0.046544604 0.3092556 -0.15890756 0.07390049 0.19674224 -0.08279347 0.09292106 -0.054294474 0.21901849 0.17621537 0.32550752 -0.08299673 -0.095338345 -0.31928036
certain -0.07341195 0.043723624 0.008595526 0.13727625 -0.13783093 -0.06895361 -0.00887582 0.26279607 -0.10623052 0.070917405 0.116279714 0.009044225 0.1417677 -0.09324782 0.20359525 0.2190949 0.26194778 -0.12018903 -0.07117249 -0.26718152
actions -0.10802441 0.024439903 0.014782245 0.15545791 -0.11734678 -0.121400304 0.034023423 0.24745527 -0.13418613 0.093658485 0.17667784 -0.07888491 0.062829375 -0.059599724 0.15510954 0.13679087 0.26311493 -0.06901761 -0.13379724 -0.2036532
first -0.076640986 -0.032870032 0.03960985 0.19074057 -0.11030662 -0.10052573 0.029550506 0.2588566 -0.10779244 0.018185146 0.11044522 -0.027683802 0.11591341 -0.033569384 0.17823774 0.16423796 0.20309389 -0.068252 -0.094852924 -0.19052286
antagonists -0.061044816 0.049054384 0.019023068 0.17626904 -0.0700524 -0.11338351 0.08455757 0.26074108 -0.110253565 0.04487489 0.19714715 -0.0070019206 0.09649029 -0.028844498 0.188217 0.20397905 0.21696995 -0.081570916 -0.11095903 -0.24579799
intravenous -0.13518073 -0.0056731445 0.038253825 0.22936007 -0.12300413 -0.10620557 0.07952279 0.28994095 -0.14778134 0.10777335 0.23840328 -0.02725113 0.13814385 -0.05390456 0.18356864 0.19219951 0.29926127 -0.12301033 -0.10589312 -0.32309034
anesthesia -0.02967943 -0.01615178 0.06736447 0.1163726 -0.096737534 -0.05785287 0.024696438 0.17777999 -0.12891085 0.08380984 0.07776018 0.0044467733 0.0702319 0.009574582 0.15442467 0.14632352 0.1564548 -0.07962379 -0.1056669 -0.19369009
Proceedings -0.024087403 -0.043994393 0.045314647 0.14771087 -0.034751058 -0.08684859 0.06086559 0.13824189 -0.10734139 0.08438297 0.14215188 -0.047325134 0.06899559 -0.07779863 0.12955138 0.15288578 0.13166538 -0.04406054 -0.09587699 -0.15000157
disorders -0.03775044 0.016385099 0.033537257 0.112840325 -0.12036378 -0.08025076 -0.012637613 0.2808059 -0.120089 0.04983106 0.19730616 -0.04693001 0.10788597 -0.04184069 0.19721936 0.18022048 0.19824828 -0.11333385 -0.13635078 -0.19750017
ions -0.057360817 0.036498018 0.08242035 0.15494974 -0.065937676 -0.14506319 0.054768328 0.2895435 -0.13449195 0.025562366 0.2030795 -0.063437566 0.13000633 -0.017485574 0.15852542 0.2532509 0.21380389 -0.074758306 -0.15920796 -0.3086516
Letter -0.08556371 0.033774152 0.013715364 0.11420783 -0.103975065 -0.008456377 0.042608254 0.13639781 -0.10797046 0.076928325 0.11596444 -0.06810686 0.083861016 -0.056912605 0.117626935 0.1495767 0.13323689 -0.059256885 -0.031101558 -0.17670743
exchange -0.07804645 0.024281915 0.006625966 0.21254218 -0.090362884 -0.10690289 0.10727765 0.323731 -0.14982046 0.035261903 0.24184336 -0.08476245 0.15986459 -0.024264615 0.21918754 0.26707324 0.25144503 -0.13024348 -0.11325432 -0.34134924
equilibrium -0.018782955 -0.03501503 0.02846758 0.18082577 -0.033794153 -0.061864413 0.084009424 0.14041941 -0.12337584 0.059241004 0.11262427 0.004642272 0.12526268 -0.058469493 0.12193543 0.18243478 0.14071618 -0.11642052 -0.07762597 -0.2205862
cholinergic -0.06818338 0.01566939 0.004270175 0.16689229 -0.11710405 -0.101529054 0.055276338 0.27076825 -0.15703581 0.10158485 0.16670078 0.00818328 0.12465611 -0.026506031 0.22405037 0.15187734 0.22404236 -0.11112983 -0.07657857 -0.26652476
pregnancy -0.07925688 0.040765867 0.024402464 0.18164441 -0.090187706 -0.0777983 0.037370298 0.19011696 -0.0882051 0.089719556 0.10717438 -0.06375559 0.117765985 -0.049136635 0.14982693 0.20923145 0.17106557 -0.10627974 -0.05657888 -0.23089695
significance -0.09632784 0.047735754 0.07085509 0.1402965 -0.12574358 -0.08622031 0.082254395 0.21830823 -0.11093467 0.044189334 0.17436343 -0.03245577 0.1367161 0.0018276869 0.11812455 0.18923253 0.171682 -0.13222414 -0.062144745 -0.21202262
Pseudomonas -0.0392137 -0.045995034 0.08021283 0.11236058 -0.121095315 -0.07079748 0.019639501 0.24409074 -0.15858091 0.023648866 0.17972857 -0.037720624 0.1334909 -0.06194667 0.1565243 0.18085326 0.24286616 -0.09398604 -0.14272776 -0.23012786
dog. -0.01629365 0.034186743 -0.0033355113 0.13758615 -0.019842386 -0.100339346 0.02977427 0.17964812 -0.13234559 0.016070455 0.13941678 -0.043696653 0.053141143 -0.022768088 0.16716325 0.15898184 0.12919398 -0.0824056 -0.023854429 -0.16356573
fractions -0.107511654 -0.041474365 0.022241414 0.22239485 -0.0983977 -0.13687566 0.08098716 0.27665257 -0.1673083 0.043450724 0.20473191 -0.030049335 0.1393524 -0.076833874 0.18330294 0.19550125 0.24026072 -0.11560497 -0.07415687 -0.2616857
differential -0.01878519 0.019486586 0.040189467 0.12782925 -0.02299646 -0.039831642 -0.009541702 0.22081554 -0.13209121 0.03738593 0.0713818 -0.068221144 0.061403777 -0.008176589 0.1344233 0.11946133 0.13213198 -0.037832767 -0.034006055 -0.13587151
lorazepam -0.06158815 -0.03921869 0.0726644 0.12680668 -0.06470249 -0.04699806 0.08008342 0.1977032 -0.14166236 0.042926487 0.14826657 -0.025582047 0.07966883 0.00901189 0.15181035 0.112320706 0.23014069 -0.111993805 -0.097162545 -0.16306031
cortex -0.11839523 0.0382786 0.01832527 0.15572836 -0.16262798 -0.09615602 0.081309594 0.33912292 -0.15623845 0.091469154 0.19712791 -0.071462385 0.18511721 -0.09653356 0.24586612 0.20218289 0.2689174 -0.12483578 -0.08426789 -0.31914657
patients. -0.040876307 0.002268782 0.034375846 0.08293348 -0.105591506 -0.10345877 0.0069042207 0.16494927 -0.12886801 0.08330238 0.1245497 -0.055259757 0.04892731 -0.060473308 0.07563849 0.11935261 0.14367197 -0.017634293 -0.046073932 -0.1636536
extracellular 0.0017425376 -0.025983024 -0.018825227 0.11421658 -0.08914183 -0.0720568 0.03882006 0.11877118 -0.09972306 0.050618418 0.10785742 -0.023112223 0.060649365 0.014532618 0.120157145 0.09556179 0.11475598 -0.093330435 -0.0711832 -0.16201697
coenzyme -0.13200405 -0.0008624675 0.01837511 0.16338053 -0.11187836 -0.10228042 0.081504 0.2885945 -0.11223355 0.08977836 0.19668382 -0.020161504 0.1402759 -0.053897865 0.23374742 0.14510442 0.25217238 -0.081986494 -0.060686395 -0.28218892
course -0.030956948 0.027919196 0.015226587 0.23209552 -0.1252902 -0.062233962 0.0024616867 0.24811664 -0.12784213 0.060760826 0.13537893 -0.03775496 0.07556811 -0.027926695 0.22628076 0.17836095 0.2724279 -0.11726488 -0.08861593 -0.24847867
alterations -0.10304468 0.008797526 0.006910853 0.17232253 -0.10779796 -0.028067395 0.03661243 0.23398054 -0.088839434 0.09603428 0.13208908 -0.014477382 0.09973436 -0.048242923 0.12362325 0.15961777 0.22430612 -0.03917122 -0.066665724 -0.1690149
citrate -0.086869076 0.011463623 0.021172052 0.15064791 -0.14118606 -0.07268135 0.016349966 0.31608963 -0.1904637 0.05794895 0.14117451 0.0072700763 0.14786397 -0.044974234 0.18147705 0.16594791 0.21321186 -0.052463382 -0.15062116 -0.23327859
H+ -0.044323128 0.05228907 0.04928913 0.16671912 -0.06013026 -0.056532264 -0.009375185 0.20171562 -0.12963583 0.056723 0.16945337 -0.036805473 0.092696294 -0.028392334 0.17829956 0.20097059 0.251133 -0.08194645 -0.08669453 -0.26470914
acids. -0.04730743 -0.013681428 0.058794394 0.17462009 -0.051595416 -0.059349727 0.092250615 0.25634843 -0.17448233 0.028105477 0.12316871 -0.017040327 0.1512901 -0.0065810443 0.16311833 0.17608775 0.18883422 -0.059825826 -0.07171416 -0.2289168
local -0.023430284 -0.042166173 -0.006193374 0.21560146 -0.06903648 -0.13571377 0.07912616 0.22707474 -0.13786137 0.06987574 0.11709422 0.004443495 0.08309438 -0.07645577 0.20785196 0.20937881 0.26673335 -0.07567007 -0.09375201 -0.27451998
groups -0.09020686 0.0005068421 0.061927523 0.23999253 -0.07392627 -0.10662381 0.019950084 0.32906315 -0.12218815 0.040546495 0.20909986 0.0037797329 0.12673572 -0.04066458 0.17380439 0.15823266 0.23648985 -0.15100667 -0.16055396 -0.25077888
microsomes. -0.08359571 0.03911164 0.035925813 0.11415106 -0.1181 -0.09229901 0.04675443 0.23774911 -0.123679094 0.08176814 0.105437525 0.030064939 0.07552363 -0.07013853 0.15109001 0.1311056 0.21250935 -0.11145311 -0.06830585 -0.16164783
cases 0.010104997 -0.006900826 0.0008384096 0.034168348 -0.020489244 -0.07483498 0.051819775 0.15309973 -0.032652237 0.06455338 0.045748178 0.033015285 0.012963223 0.016722495 0.05803173 0.079374745 0.0973097 -0.040608715 -0.007498641 -0.096671835
lipid -0.12036053 0.032701977 0.06367417 0.14631668 -0.0683658 -0.09803553 0.07350422 0.25043792 -0.12305526 0.08907885 0.15803777 -0.07561008 0.11250782 -0.038101472 0.14165369 0.13938917 0.23767658 -0.09374725 -0.12927487 -0.27241278
haemoglobin -0.019943893 0.053836778 -0.0037575827 0.11023242 -0.084380485 -0.097457156 0.0363077 0.19431792 -0.16827676 0.024316316 0.16351342 -0.006772144 0.05130916 -0.08712311 0.12044955 0.16379523 0.15713489 -0.081164114 -0.043007392 -0.25264516
02-115 -0.041442465 0.04659948 0.04649835 0.050882246 -0.05155716 -0.07247872 -0.009966169 0.08349289 -0.0047261068 0.006523031 0.09751863 -0.048783552 0.06090827 0.012594142 0.029618796 0.09307861 0.037625287 -0.009230081 -0.079590425 -0.07889104
